svm_type epsilon_svr
kernel_type rbf
gamma 0.05
nr_class 2
total_sv 970
rho -67.8283
probA 5.37736
SV
1024 1:0.102186 2:-0.00360346 3:0.200433 4:-0.177213 5:-0.374693 6:-0.1235 7:0.203487 8:-0.0322926 9:-0.317704 10:-0.232369 11:0.424516 12:0.00262641 13:-0.273042 14:-0.461218 15:0.413133 16:0.0228274 17:-0.267629 18:-0.45234 19:0.160322 20:-0.169312 21:0.0562071 22:-0.21288 23:-0.204057 24:-0.129343 25:0.0916214 26:-0.167653 27:-0.323056 28:-0.279658 29:0.285318 30:-0.347852 31:-0.120088 32:-0.614391 33:0.250695 34:-0.176782 35:-0.0999207 36:-0.581074 
495.9510568139324 1:0.221841 2:0.271509 3:0.425375 4:-0.395809 5:-0.032662 6:0.10278 7:0.420115 8:-0.229735 9:0.0115788 10:0.0170436 11:0.577816 12:-0.0206393 13:0.0181203 14:-0.161602 15:0.570409 16:-0.0193235 17:0.0306318 18:-0.156857 19:0.379522 20:0.0623186 21:0.349015 22:-0.335595 23:0.00551534 24:0.000510135 25:0.348163 26:-0.313836 27:-0.109677 28:-0.119029 29:0.542936 30:-0.257439 31:0.0327767 32:-0.402437 33:0.504178 34:-0.0970293 35:0.0510306 36:-0.372827 
-1024 1:0.289808 2:0.429648 3:0.538959 4:-0.503576 5:0.184787 6:0.257565 7:0.527334 8:-0.338364 9:0.229249 10:0.182711 11:0.648571 12:-0.054046 13:0.220931 14:0.0336201 15:0.645527 16:-0.0441265 17:0.224729 18:0.0379232 19:0.441393 20:0.216739 21:0.471893 22:-0.405668 23:0.160572 24:0.117386 25:0.458112 26:-0.414804 27:0.0576878 28:0.00435546 29:0.642658 30:-0.177739 31:0.15139 32:-0.22636 33:0.612811 34:-0.0425768 35:0.180831 36:-0.201676 
1024 1:0.389926 2:0.615301 3:0.674817 4:-0.60087 5:0.441126 6:0.462478 7:0.654249 8:-0.431534 9:0.484103 10:0.40046 11:0.738195 12:-0.0591798 13:0.465056 14:0.302924 15:0.739424 16:-0.0362316 17:0.456711 18:0.309263 19:0.527423 20:0.426473 21:0.641826 22:-0.491161 23:0.36936 24:0.281598 25:0.607326 26:-0.52674 27:0.289167 28:0.194173 29:0.745152 30:-0.0782077 31:0.34466 32:0.0532409 33:0.727019 34:0.024482 35:0.381586 36:0.0601251 
-1024 1:0.463184 2:0.702084 3:0.743861 4:-0.653911 5:0.576701 6:0.562932 7:0.73084 8:-0.449365 9:0.58943 10:0.51318 11:0.804235 12:-0.0525282 13:0.574 14:0.435385 15:0.788722 16:-0.0456772 17:0.585816 18:0.448391 19:0.604614 20:0.535379 21:0.735942 22:-0.535213 23:0.485137 24:0.3747 25:0.680625 26:-0.600518 27:0.430546 28:0.295438 29:0.819942 30:-0.0450253 31:0.456422 32:0.202363 33:0.791084 34:0.0800088 35:0.482025 36:0.219419 
-1024 1:0.514871 2:0.80514 3:0.837407 4:-0.710277 5:0.720553 6:0.667016 7:0.789923 8:-0.484289 9:0.730739 10:0.647632 11:0.849049 12:-0.0507723 13:0.720723 14:0.60564 15:0.845063 16:-0.0288958 17:0.709914 18:0.611394 19:0.634666 20:0.671276 21:0.803917 22:-0.579871 23:0.642665 24:0.522734 25:0.772246 26:-0.701185 27:0.593173 28:0.386397 29:0.847644 30:0.0510372 31:0.581579 32:0.428958 33:0.84958 34:0.153718 35:0.603885 36:0.426139 
-121.9511381491813 1:0.57592 2:0.892619 3:0.899773 4:-0.728536 5:0.84431 6:0.797106 7:0.87089 8:-0.54288 9:0.857433 10:0.735554 11:0.910372 12:-0.0562855 13:0.840111 14:0.738937 15:0.901403 16:-0.0358738 17:0.835328 18:0.751405 19:0.672967 20:0.80074 21:0.871891 22:-0.632589 23:0.79427 24:0.637511 25:0.850781 26:-0.778827 27:0.758114 28:0.503051 29:0.919667 30:0.113909 31:0.700132 32:0.626529 33:0.916433 34:0.183981 35:0.742862 36:0.610629 
-1024 1:-0.762305 2:-0.557679 3:-0.670382 4:-0.151618 5:-0.751367 6:-0.662985 7:-0.6674 8:0.221556 9:-0.783713 10:-0.690819 11:-0.528307 12:0.0532945 13:-0.649495 14:-0.864274 15:-0.523479 16:0.0626598 17:-0.639376 18:-0.861455 19:-0.470224 20:-0.470628 21:-0.328105 22:-0.275897 23:-0.307529 24:-0.491399 25:-0.327226 26:-0.0864627 27:-0.538921 28:-0.538964 29:-0.191137 30:-0.498046 31:-0.229348 32:-0.835818 33:-0.200558 34:-0.305726 35:-0.227804 36:-0.809787 
-1024 1:-0.755793 2:-0.626146 3:-0.648111 4:-0.109633 5:-0.822367 6:-0.737162 7:-0.680529 8:0.415096 9:-0.89496 10:-0.73775 11:-0.57076 12:0.230648 13:-0.765865 14:-0.886095 15:-0.565733 16:0.239904 17:-0.757043 18:-0.884055 19:-0.442526 20:-0.520757 21:-0.309807 22:-0.195765 23:-0.438515 24:-0.543793 25:-0.324608 26:0.0552146 27:-0.647183 28:-0.564156 29:-0.177286 30:-0.38703 31:-0.339512 32:-0.851236 33:-0.183845 34:-0.196368 35:-0.346764 36:-0.826215 
-1024 1:-0.746025 2:-0.685284 3:-0.621384 4:-0.0819331 5:-0.862479 6:-0.782782 7:-0.6674 8:0.506785 9:-0.937277 10:-0.77055 11:-0.580191 12:0.32534 13:-0.822392 14:-0.899291 15:-0.577467 16:0.336268 17:-0.814882 18:-0.897414 19:-0.421901 20:-0.561528 21:-0.294121 22:-0.126621 23:-0.53724 24:-0.582541 25:-0.32199 26:0.151376 27:-0.716376 28:-0.587426 29:-0.166206 30:-0.269938 31:-0.436324 32:-0.860073 33:-0.172703 34:-0.0874922 35:-0.446142 36:-0.835951 
-1024 1:-0.702473 2:-0.780212 3:-0.543436 4:-0.0300376 5:-0.926093 6:-0.866616 7:-0.575498 8:0.611533 9:-0.97757 10:-0.840571 11:-0.511797 12:0.500506 13:-0.908673 14:-0.923674 15:-0.514089 16:0.511634 17:-0.903196 18:-0.922321 19:-0.374755 20:-0.653552 21:-0.236604 22:0.0158946 23:-0.719674 24:-0.678505 25:-0.301048 26:0.279059 27:-0.819228 28:-0.664002 29:-0.110803 30:-0.0604455 31:-0.61035 32:-0.88837 33:-0.122563 34:0.0987247 35:-0.617855 36:-0.866663 
480.2209585399353 1:-0.648745 2:-0.863001 3:-0.465484 4:0.041698 5:-0.97019 6:-0.926123 7:-0.494536 8:0.578751 9:-0.989132 10:-0.915983 11:-0.426891 12:0.639877 13:-0.962758 14:-0.95436 15:-0.431929 16:0.665178 17:-0.961448 18:-0.952431 19:-0.261606 20:-0.750635 21:-0.1451 22:0.156486 23:-0.861842 24:-0.785156 25:-0.170159 26:0.441473 27:-0.9143 28:-0.750877 29:0.0360101 30:0.2362 31:-0.791268 32:-0.911818 33:0.00556971 34:0.36498 35:-0.795177 36:-0.891117 
-1024 1:-0.645081 2:-0.973613 3:-0.374172 4:0.131005 5:-0.998902 6:-0.987338 7:-0.411384 8:0.505793 9:-0.998395 10:-0.997094 11:-0.299534 12:0.813934 13:-0.999637 14:-0.992744 15:-0.316908 16:0.850071 17:-0.999772 18:-0.990517 19:-0.170262 20:-0.898928 21:0.074508 22:0.321736 23:-0.97244 24:-0.914518 25:0.00523304 26:0.607522 27:-0.989497 28:-0.872812 29:0.0858723 30:0.692916 31:-0.966467 32:-0.936572 33:0.0584952 34:0.77076 35:-0.967865 36:-0.919041 
1024 1:-0.718348 2:-0.986631 3:-0.596886 4:0.111829 5:-0.99846 6:-0.978469 7:-0.553617 8:0.467758 9:-0.998055 10:-1 11:-0.464627 12:0.742902 13:-0.997769 14:-0.999611 15:-0.47653 16:0.778935 17:-0.997895 18:-0.997502 19:-0.225068 20:-0.937634 21:0.0248342 22:0.371556 23:-0.99225 24:-0.934101 25:-0.0183274 26:0.619286 27:-0.998659 28:-0.900301 29:0.113573 30:0.782757 31:-0.997838 32:-0.95472 33:0.0891362 34:0.848672 35:-0.998357 36:-0.938676 
-1024 1:-0.817659 2:-0.580877 3:-0.752786 4:0.295891 5:-0.913471 6:-0.462897 7:-0.610507 8:-0.500216 9:-0.463486 10:-0.848884 11:-0.587267 12:-0.233192 13:-0.515486 14:-0.91119 15:-0.579815 16:-0.200921 17:-0.51859 18:-0.906737 19:-0.545657 20:-0.499257 21:-0.440525 22:0.163011 23:-0.669183 24:-0.2628 25:-0.314137 26:-0.583438 27:-0.31107 28:-0.726795 29:-0.252079 30:-0.420808 31:-0.289369 32:-0.844903 33:-0.259055 34:-0.239771 35:-0.288816 36:-0.821026 
-1024 1:-0.809926 2:-0.619895 3:-0.750558 4:0.431014 5:-0.963041 6:-0.472469 7:-0.579875 8:-0.56644 9:-0.502177 10:-0.90874 11:-0.57076 12:-0.225693 13:-0.562745 14:-0.934159 15:-0.56808 16:-0.195256 17:-0.563253 18:-0.930348 19:-0.53446 20:-0.550697 21:-0.422224 22:0.371238 23:-0.826101 24:-0.231451 25:-0.267019 26:-0.613461 27:-0.369774 28:-0.802383 29:-0.224378 30:-0.359675 31:-0.383203 32:-0.873361 33:-0.231199 34:-0.181123 35:-0.385646 36:-0.850348 
-1024 1:-0.810333 2:-0.634701 3:-0.75724 4:0.480991 5:-0.977687 6:-0.478378 7:-0.575498 8:-0.584731 9:-0.518838 10:-0.928648 11:-0.575474 12:-0.222159 13:-0.578313 14:-0.942743 15:-0.572775 16:-0.192945 17:-0.577972 18:-0.939113 19:-0.53505 20:-0.571115 21:-0.41961 22:0.437926 23:-0.867961 24:-0.225659 25:-0.256547 26:-0.613715 27:-0.398156 28:-0.82879 29:-0.221608 30:-0.349534 31:-0.411759 32:-0.887301 33:-0.225628 34:-0.169905 35:-0.415416 36:-0.864024 
1024 1:-0.812368 2:-0.652215 3:-0.768376 4:0.520207 5:-0.98848 6:-0.49023 7:-0.575498 8:-0.593981 9:-0.539893 10:-0.947014 11:-0.58255 12:-0.219755 13:-0.595111 14:-0.952654 15:-0.582162 16:-0.193213 17:-0.591818 18:-0.948885 19:-0.537996 20:-0.60182 21:-0.416995 22:0.513665 23:-0.910901 24:-0.224977 25:-0.246076 26:-0.605312 27:-0.440766 28:-0.862431 29:-0.216068 30:-0.34444 31:-0.448878 32:-0.908805 33:-0.220057 34:-0.162941 35:-0.453254 36:-0.885399 
877.6598183774148 1:-0.812368 2:-0.633935 3:-0.743879 4:0.387702 5:-0.955706 6:-0.500868 7:-0.571122 8:-0.526787 9:-0.547618 10:-0.919121 11:-0.573116 12:-0.224257 13:-0.583841 14:-0.946443 15:-0.572775 16:-0.197775 17:-0.579747 18:-0.942082 19:-0.544478 20:-0.620107 21:-0.41961 22:0.539584 23:-0.92769 24:-0.240332 25:-0.248694 26:-0.546184 27:-0.488973 28:-0.868197 29:-0.207757 30:-0.351699 31:-0.480776 32:-0.931541 33:-0.214486 34:-0.16992 35:-0.481705 36:-0.907061 
1024 1:-0.807484 2:-0.668527 3:-0.730516 4:0.492886 5:-0.983076 6:-0.516065 7:-0.54924 8:-0.610994 9:-0.550527 10:-0.956591 11:-0.568401 12:-0.244546 13:-0.594508 14:-0.959346 15:-0.561038 16:-0.211187 17:-0.596791 18:-0.955364 19:-0.522674 20:-0.669958 21:-0.403923 22:0.635128 23:-0.971649 24:-0.265626 25:-0.175395 26:-0.578155 27:-0.548539 28:-0.937557 29:-0.163436 30:-0.348834 31:-0.536826 32:-0.960923 33:-0.169917 34:-0.18135 35:-0.529714 36:-0.938736 
-1024 1:-0.811147 2:-0.669125 3:-0.714926 4:0.475357 5:-0.977812 6:-0.516178 7:-0.547052 8:-0.601255 9:-0.558095 10:-0.95678 11:-0.563684 12:-0.277224 13:-0.58535 14:-0.965235 15:-0.561038 16:-0.241842 17:-0.586063 18:-0.960407 19:-0.528567 20:-0.717114 21:-0.393466 22:0.694769 23:-0.99784 24:-0.3242 25:-0.138745 26:-0.583391 27:-0.597883 28:-0.981912 29:-0.163436 30:-0.314951 31:-0.597573 32:-0.985374 33:-0.172703 34:-0.170453 35:-0.582394 36:-0.966931 
1024 1:-0.878304 2:-0.481524 3:-0.786193 4:-0.211265 5:-0.617161 6:-0.53078 7:-0.800877 8:0.0115572 9:-0.540752 10:-0.545759 11:-0.747645 12:0.0417919 13:-0.485423 14:-0.76788 15:-0.746482 16:0.0470787 17:-0.467853 18:-0.763995 19:-0.710073 20:-0.590964 21:-0.511114 22:-0.462978 23:-0.177317 24:-0.722567 25:-0.578535 26:-0.174074 27:-0.507246 28:-0.611789 29:-0.501387 30:-0.288578 31:-0.34008 32:-0.851928 33:-0.520891 34:-0.140739 35:-0.317509 36:-0.825721 
-521.3104903806133 1:-0.829462 2:-0.468354 3:-0.71938 4:-0.365135 5:-0.526511 6:-0.593043 7:-0.702411 8:-0.307128 9:-0.399602 10:-0.673302 11:-0.617927 12:-0.309366 13:-0.347009 14:-0.848486 15:-0.617374 16:-0.296734 17:-0.331855 18:-0.84235 19:-0.62993 20:-0.462915 21:-0.445754 22:-0.466539 23:-0.0227572 24:-0.506769 25:-0.463353 26:-0.337344 27:-0.335943 28:-0.545788 29:-0.373962 30:-0.487592 31:-0.152822 32:-0.813032 33:-0.395544 34:-0.310388 35:-0.130568 36:-0.782867 
-1024 1:-0.913307 2:-0.293011 3:-0.817374 4:-0.324478 5:-0.343985 6:-0.324347 7:-0.846829 8:0.0237469 9:-0.311644 10:-0.233722 11:-0.801888 12:-0.0023288 13:-0.224328 14:-0.592757 15:-0.798123 16:-0.0021396 17:-0.203004 18:-0.590818 19:-0.817912 20:-0.3314 21:-0.626145 22:-0.571373 23:0.278129 24:-0.470715 25:-0.670159 26:-0.266291 27:-0.145139 28:-0.261874 29:-0.62327 30:-0.363248 31:0.0712059 32:-0.647559 33:-0.637884 34:-0.207513 35:0.11108 36:-0.607787 
-1024 1:-0.915342 2:-0.342997 3:-0.82851 4:-0.374142 5:-0.323693 6:-0.379364 7:-0.85777 8:-0.0324651 9:-0.292093 10:-0.290429 11:-0.808964 12:-0.0580563 13:-0.206777 14:-0.631653 15:-0.805166 16:-0.0532292 17:-0.188741 18:-0.628491 19:-0.825572 20:-0.389335 21:-0.641832 22:-0.566887 23:0.244046 24:-0.512876 25:-0.685866 26:-0.285648 27:-0.153557 28:-0.30655 29:-0.63989 30:-0.357108 31:0.0361962 32:-0.67417 33:-0.654597 34:-0.202024 35:0.0761025 36:-0.634421 
-1024 1:-0.933657 2:-0.243475 3:-0.85969 4:-0.465072 5:-0.138476 6:-0.318104 7:-0.88184 8:-0.115306 9:-0.138917 10:-0.229436 11:-0.834907 12:-0.132213 13:-0.0723779 14:-0.602852 15:-0.82864 16:-0.145761 17:-0.0478122 18:-0.610888 19:-0.862108 20:-0.342054 21:-0.691505 22:-0.5907 23:0.332771 24:-0.510535 25:-0.730366 26:-0.388558 27:-0.019712 28:-0.308291 29:-0.692522 30:-0.356592 31:0.0961804 32:-0.653009 33:-0.710308 34:-0.206029 35:0.139388 36:-0.616362 
-1024 1:-0.93732 2:-0.253788 3:-0.873053 4:-0.489484 5:-0.0986673 6:-0.321654 7:-0.894969 8:-0.145579 9:-0.0911023 10:-0.224955 11:-0.851417 12:-0.148106 13:-0.0405691 14:-0.602555 15:-0.842725 16:-0.16387 17:-0.0140053 18:-0.610139 19:-0.866232 20:-0.35379 21:-0.704577 22:-0.611634 23:0.380507 24:-0.519409 25:-0.740838 26:-0.409736 27:0.0125983 28:-0.306626 29:-0.706373 30:-0.375779 31:0.118843 32:-0.659025 33:-0.721451 34:-0.221822 35:0.16351 36:-0.619149 
-1024 1:-0.908829 2:-0.44703 3:-0.812919 4:-0.721726 5:-0.209102 6:-0.713498 7:-0.844641 8:-0.441359 9:-0.198543 10:-0.674128 11:-0.785379 12:-0.456623 13:-0.117528 14:-0.856803 15:-0.781691 16:-0.451747 17:-0.101231 18:-0.854961 19:-0.81909 20:-0.500477 21:-0.639217 22:-0.707612 23:0.284449 24:-0.756824 25:-0.683248 26:-0.507852 27:-0.140122 28:-0.583155 29:-0.63158 30:-0.552782 31:0.00445176 32:-0.827274 33:-0.651812 34:-0.373742 35:0.0373026 36:-0.794496 
-1024 1:-0.707357 2:-0.382468 3:-0.550117 4:-0.28826 5:-0.484284 6:-0.427705 7:-0.551428 8:-0.0953757 9:-0.465822 10:-0.526078 11:-0.441042 12:-0.12423 13:-0.408243 14:-0.749596 15:-0.443666 16:-0.095969 17:-0.403463 18:-0.740399 19:-0.529745 20:-0.403658 21:-0.39608 22:-0.370415 23:-0.0660846 24:-0.34371 25:-0.3822 26:-0.302206 27:-0.315829 28:-0.46618 29:-0.285321 30:-0.452293 31:-0.128103 32:-0.758361 33:-0.311977 34:-0.268959 35:-0.107676 36:-0.723312 
1024 1:-0.695961 2:-0.348222 3:-0.516709 4:-0.251367 5:-0.475262 6:-0.368051 7:-0.512041 8:-0.121149 9:-0.429177 10:-0.500331 11:-0.389155 12:-0.179861 13:-0.373091 14:-0.746126 15:-0.384983 16:-0.158674 17:-0.37048 18:-0.741716 19:-0.512066 20:-0.402052 21:-0.375165 22:-0.386566 23:-0.0540325 24:-0.353971 25:-0.376965 26:-0.272498 27:-0.336049 28:-0.458807 29:-0.285321 30:-0.441202 31:-0.134756 32:-0.756392 33:-0.309192 34:-0.262849 35:-0.113903 36:-0.723031 
-1024 1:-0.720383 2:-0.379371 3:-0.545663 4:-0.256271 5:-0.484072 6:-0.387892 7:-0.540487 8:-0.128308 9:-0.434084 10:-0.516513 11:-0.417457 12:-0.200515 13:-0.37073 14:-0.761152 15:-0.415497 16:-0.181054 17:-0.365192 18:-0.755932 19:-0.533281 20:-0.418635 21:-0.385622 22:-0.400766 23:-0.0472317 24:-0.378509 25:-0.390054 26:-0.254621 27:-0.34857 28:-0.457475 29:-0.296398 30:-0.429758 31:-0.145387 32:-0.759082 33:-0.320334 34:-0.250776 35:-0.125283 36:-0.724973 
-1024 1:-0.728523 2:-0.367677 3:-0.541208 4:-0.22465 5:-0.480976 6:-0.343384 7:-0.533923 8:-0.0978194 9:-0.442126 10:-0.497048 11:-0.400948 12:-0.24378 13:-0.349871 14:-0.767476 15:-0.399065 16:-0.233664 17:-0.339791 18:-0.764196 19:-0.519138 20:-0.408652 21:-0.354249 22:-0.40108 23:-0.0499294 24:-0.371881 25:-0.363876 26:-0.238551 27:-0.358363 28:-0.448951 29:-0.26593 30:-0.445412 31:-0.135599 32:-0.755913 33:-0.284125 34:-0.284934 35:-0.108487 36:-0.729426 
1024 1:-0.750502 2:-0.361187 3:-0.56348 4:-0.228294 5:-0.474251 6:-0.339006 7:-0.555805 8:-0.0548392 9:-0.460648 10:-0.481782 11:-0.426891 12:-0.247954 13:-0.343387 14:-0.769541 15:-0.42254 16:-0.231226 17:-0.338277 18:-0.765843 19:-0.555086 20:-0.404385 21:-0.375165 22:-0.396869 23:-0.0614845 24:-0.386715 25:-0.395289 26:-0.253898 27:-0.344456 28:-0.451884 29:-0.307479 30:-0.462119 31:-0.113979 32:-0.758739 33:-0.317549 34:-0.286323 35:-0.101248 36:-0.731586 
-1024 1:-0.753758 2:-0.371494 3:-0.567934 4:-0.252592 5:-0.479213 6:-0.377481 7:-0.57331 8:0.0695085 9:-0.543356 10:-0.472311 11:-0.431608 12:-0.191624 13:-0.394466 14:-0.77691 15:-0.427234 16:-0.181255 17:-0.386715 18:-0.775047 19:-0.544478 20:-0.392364 21:-0.356864 22:-0.391105 23:-0.0787332 24:-0.392888 25:-0.35864 26:-0.248709 27:-0.350529 28:-0.448957 29:-0.27424 30:-0.494553 31:-0.102013 32:-0.763306 33:-0.292479 34:-0.299112 35:-0.0953734 36:-0.731309 
1024 1:-0.772481 2:-0.389249 3:-0.587977 4:-0.242469 5:-0.484307 6:-0.372689 7:-0.590814 8:0.0565211 9:-0.532729 10:-0.471107 11:-0.448118 12:-0.204972 13:-0.385653 14:-0.780625 15:-0.450709 16:-0.182157 17:-0.380278 18:-0.774665 19:-0.549783 20:-0.406659 21:-0.309807 22:-0.440735 23:-0.0651077 24:-0.45958 25:-0.353404 26:-0.209734 27:-0.372239 28:-0.434287 29:-0.26593 30:-0.485886 31:-0.107753 32:-0.760546 33:-0.289696 34:-0.288749 35:-0.0991219 36:-0.726475 
-1024 1:-0.56001 2:-0.543535 3:-0.538981 4:-0.0234986 5:-0.723793 6:-0.484729 7:-0.557993 8:0.135201 9:-0.650816 10:-0.564075 11:-0.433967 12:0.0844097 13:-0.595803 14:-0.790157 15:-0.434277 16:0.100338 17:-0.589208 18:-0.786853 19:-0.309341 20:-0.459601 21:-0.335949 22:-0.29656 23:-0.210947 24:-0.385335 25:-0.342933 26:-0.153471 27:-0.430504 28:-0.45276 29:-0.227148 30:-0.365349 31:-0.226683 32:-0.76742 33:-0.256269 34:-0.211057 35:-0.199196 36:-0.740427 
-1024 1:-0.55594 2:-0.548475 3:-0.525618 4:-0.0365766 5:-0.720254 6:-0.494641 7:-0.562369 8:0.167673 9:-0.669059 10:-0.562073 11:-0.42925 12:0.104922 13:-0.61356 14:-0.794815 15:-0.429582 16:0.115859 17:-0.606085 18:-0.79346 19:-0.236265 20:-0.455053 21:-0.288892 22:-0.296565 23:-0.226561 24:-0.398232 25:-0.306283 26:-0.0801354 27:-0.474384 28:-0.433375 29:-0.177286 30:-0.327136 31:-0.265895 32:-0.767097 33:-0.208915 34:-0.192926 35:-0.229209 36:-0.743531 
1024 1:-0.567744 2:-0.558659 3:-0.538981 4:-0.019077 5:-0.733148 6:-0.496376 7:-0.571122 8:0.170713 9:-0.677131 10:-0.571423 11:-0.436325 12:0.0907934 13:-0.614179 14:-0.803876 15:-0.436624 16:0.105169 17:-0.60772 18:-0.801616 19:-0.241569 20:-0.453356 21:-0.286278 22:-0.293928 23:-0.224432 24:-0.388917 25:-0.303665 26:-0.0773701 27:-0.474911 28:-0.430951 29:-0.171746 30:-0.343917 31:-0.260407 32:-0.77177 33:-0.203344 34:-0.194 35:-0.227857 36:-0.742439 
-1024 1:-0.579955 2:-0.576641 3:-0.545663 4:-0.0384707 5:-0.735298 6:-0.521424 7:-0.590814 8:0.214685 9:-0.702595 10:-0.570619 11:-0.452835 12:0.100719 13:-0.628414 14:-0.813177 15:-0.453056 16:0.121294 17:-0.624339 18:-0.809834 19:-0.235676 20:-0.45867 21:-0.291506 22:-0.292322 23:-0.230986 24:-0.397043 25:-0.303665 26:-0.0345723 27:-0.504366 28:-0.428818 29:-0.171746 30:-0.345116 31:-0.268641 32:-0.778472 33:-0.206129 34:-0.190178 35:-0.237582 36:-0.747515 
1024 1:-0.584433 2:-0.589401 3:-0.550117 4:-0.066774 5:-0.730541 6:-0.544123 7:-0.603943 8:0.232553 9:-0.714918 10:-0.573413 11:-0.464627 12:0.0992902 13:-0.632899 14:-0.819198 15:-0.467141 16:0.118841 17:-0.627711 18:-0.815688 19:-0.233908 20:-0.470715 21:-0.294121 22:-0.285479 23:-0.251159 24:-0.41518 25:-0.314137 26:0.00942395 27:-0.532177 28:-0.424267 29:-0.180056 30:-0.338428 31:-0.282213 32:-0.785785 33:-0.206129 34:-0.189016 35:-0.253457 36:-0.758353 
1024 1:-0.601121 2:-0.602743 3:-0.572387 4:-0.085468 5:-0.727956 6:-0.558742 7:-0.61926 8:0.231726 9:-0.717274 10:-0.577134 11:-0.488212 12:0.0878471 13:-0.631551 14:-0.82645 15:-0.48592 16:0.0935611 17:-0.622726 18:-0.82673 19:-0.238033 20:-0.475827 21:-0.296735 22:-0.295892 23:-0.252869 24:-0.439424 25:-0.327226 26:0.0304144 27:-0.541615 28:-0.416269 29:-0.185596 30:-0.315273 31:-0.300552 32:-0.787173 33:-0.217272 34:-0.161625 35:-0.275747 36:-0.759055 
1024 1:-0.612518 2:-0.623427 3:-0.587977 4:-0.08434 5:-0.743798 6:-0.583142 7:-0.645518 8:0.248264 9:-0.734481 10:-0.588308 11:-0.497646 12:0.0795512 13:-0.647971 14:-0.846415 15:-0.500005 16:0.092987 17:-0.640688 18:-0.844534 19:-0.21446 20:-0.489496 21:-0.273205 22:-0.275127 23:-0.290119 24:-0.45108 25:-0.311519 26:0.0457338 27:-0.564073 28:-0.435888 29:-0.168976 30:-0.290815 31:-0.325944 32:-0.790408 33:-0.200558 34:-0.123572 35:-0.312093 36:-0.760246 
-1024 1:-0.780621 2:-0.390434 3:-0.619157 4:-0.352431 5:-0.433557 6:-0.445902 7:-0.621448 8:-0.204292 9:-0.382881 10:-0.541467 11:-0.514156 12:-0.270156 13:-0.323028 14:-0.784884 15:-0.511742 16:-0.257543 17:-0.310472 18:-0.778805 19:-0.57748 20:-0.422818 21:-0.403923 22:-0.439403 23:-0.00978638 24:-0.415562 25:-0.413614 26:-0.278035 27:-0.333398 28:-0.46736 29:-0.32687 30:-0.453645 31:-0.128927 32:-0.767793 33:-0.342619 34:-0.288859 35:-0.107012 36:-0.742152 
-1024 1:-0.769224 2:-0.37708 3:-0.60134 4:-0.317342 5:-0.435593 6:-0.402398 7:-0.601754 8:-0.155469 9:-0.399376 10:-0.510014 11:-0.495288 12:-0.237605 13:-0.330883 14:-0.767219 15:-0.49531 16:-0.218709 17:-0.322546 18:-0.760769 19:-0.555086 20:-0.432659 21:-0.388237 22:-0.436249 23:-0.0234462 24:-0.421426 25:-0.397907 26:-0.259515 27:-0.351477 28:-0.468091 29:-0.304709 30:-0.428712 31:-0.153743 32:-0.76584 33:-0.325905 34:-0.249593 35:-0.141039 36:-0.736311 
-1024 1:-0.794459 2:-0.310203 3:-0.614703 4:-0.141888 5:-0.465653 6:-0.207102 7:-0.603943 8:0.00533299 9:-0.415433 10:-0.365735 11:-0.50708 12:-0.121418 13:-0.33039 14:-0.694645 15:-0.5047 16:-0.108963 17:-0.321476 18:-0.690848 19:-0.589856 20:-0.401614 21:-0.393466 22:-0.371185 23:-0.0547112 24:-0.327841 25:-0.413614 26:-0.19793 27:-0.352046 28:-0.400039 29:-0.32687 30:-0.383819 31:-0.130809 32:-0.72647 33:-0.342619 34:-0.205664 35:-0.122498 36:-0.695962 
-1024 1:-0.793238 2:-0.380312 3:-0.621384 4:-0.336892 5:-0.411796 6:-0.398269 7:-0.614884 8:-0.141511 9:-0.414849 10:-0.517051 11:-0.497646 12:-0.304604 13:-0.305072 14:-0.788533 15:-0.497657 16:-0.294937 17:-0.29177 18:-0.784189 19:-0.589856 20:-0.430371 21:-0.398694 22:-0.43052 23:-0.0434508 24:-0.440907 25:-0.413614 26:-0.271748 27:-0.340432 28:-0.469586 29:-0.32964 30:-0.483914 31:-0.109538 32:-0.773127 33:-0.345404 34:-0.299996 35:-0.101109 36:-0.746106 
-1024 1:-0.781435 2:-0.376857 3:-0.603567 4:-0.314869 5:-0.441035 6:-0.406741 7:-0.612695 8:-0.0330473 9:-0.48725 10:-0.500498 11:-0.485854 12:-0.243601 13:-0.353989 14:-0.786139 15:-0.483573 16:-0.230891 17:-0.346608 18:-0.783761 19:-0.56864 20:-0.414341 21:-0.388237 22:-0.395113 23:-0.0867886 24:-0.423548 25:-0.390054 26:-0.246452 27:-0.358801 28:-0.462102 29:-0.304709 30:-0.479246 31:-0.12197 32:-0.773763 33:-0.32312 34:-0.286688 35:-0.111453 36:-0.739943 
1024 1:-0.790389 2:-0.489034 3:-0.576841 4:-0.32268 5:-0.437674 6:-0.409423 7:-0.590814 8:0.0134259 9:-0.513019 10:-0.486817 11:-0.462269 12:-0.173105 13:-0.400018 14:-0.775706 15:-0.462446 16:-0.153388 17:-0.3953 18:-0.771661 19:-0.582195 20:-0.47422 21:-0.369936 22:-0.417616 23:-0.0567781 24:-0.421793 25:-0.376965 26:-0.234802 27:-0.364615 28:-0.455068 29:-0.290858 30:-0.485145 31:-0.11937 32:-0.772759 33:-0.314763 34:-0.28997 35:-0.108331 36:-0.738371 
1024 1:-0.805041 2:-0.292937 3:-0.603567 4:-0.155533 5:-0.437061 6:-0.183212 7:-0.606131 8:0.181149 9:-0.492462 10:-0.279455 11:-0.502363 12:-0.0372608 13:-0.368354 14:-0.668637 15:-0.502352 16:-0.0235133 17:-0.359376 18:-0.664197 19:-0.570408 20:-0.351082 21:-0.304578 22:-0.414294 23:-0.0425562 24:-0.372549 25:-0.345551 26:-0.167545 27:-0.342043 28:-0.341388 29:-0.26593 30:-0.433943 31:-0.0817847 32:-0.710765 33:-0.289696 34:-0.236694 35:-0.0777698 36:-0.675313 
-1024 1:0.144106 2:0.0360147 3:0.140299 4:-0.165329 5:-0.323371 6:-0.0315683 7:0.194734 8:-0.127316 9:-0.248634 10:-0.227733 11:0.485837 12:-0.126834 13:-0.209134 14:-0.481173 15:0.485904 16:-0.114927 17:-0.211756 18:-0.485191 19:0.2163 20:-0.0776849 21:0.129408 22:-0.202622 23:-0.159533 24:-0.0207907 25:0.036647 26:-0.0752811 27:-0.267198 28:-0.0905825 29:0.34349 30:-0.34423 31:-0.0742603 32:-0.569248 33:0.370471 34:-0.304739 35:-0.0340866 36:-0.604634 
557.4611667134083 1:0.228352 2:0.299311 3:0.331834 4:-0.351822 5:0.0114878 6:0.216175 7:0.398233 8:-0.297914 9:0.0689434 10:0.0192507 11:0.606118 12:-0.149393 13:0.0785747 14:-0.201241 15:0.607968 16:-0.129808 17:0.071483 18:-0.201566 19:0.42784 20:0.154912 21:0.377774 22:-0.302156 23:0.0635035 24:0.173949 25:0.290574 26:-0.244423 27:-0.035112 28:0.0662725 29:0.584485 30:-0.294018 31:0.101007 32:-0.363996 33:0.604455 34:-0.231322 35:0.143764 36:-0.38844 
-1024 1:0.282482 2:0.443652 3:0.427602 4:-0.433692 5:0.208709 6:0.377424 7:0.494511 8:-0.371656 9:0.256771 10:0.179045 11:0.660364 12:-0.143411 13:0.25326 14:-0.0109231 15:0.664306 16:-0.127415 17:0.244941 18:-0.0136253 19:0.532137 20:0.299628 21:0.495422 22:-0.367265 23:0.230671 24:0.320956 25:0.418845 26:-0.328774 27:0.119674 28:0.193209 29:0.70914 30:-0.234422 31:0.220436 32:-0.20048 33:0.70752 34:-0.161669 35:0.264379 36:-0.219375 
-1024 1:0.386263 2:0.613913 3:0.561231 4:-0.502393 5:0.435835 6:0.588382 7:0.61486 8:-0.433668 9:0.48445 10:0.395635 11:0.749987 12:-0.119669 13:0.463903 14:0.242581 15:0.744119 16:-0.117447 17:0.461901 18:0.23497 19:0.664128 20:0.487757 21:0.639212 22:-0.427596 23:0.432088 24:0.529568 25:0.583765 26:-0.438661 27:0.33807 28:0.371669 29:0.825483 30:-0.135221 31:0.401821 32:0.0657317 33:0.816154 34:-0.0656923 35:0.444806 36:0.0414236 
-354.1353578090793 1:0.459114 2:0.698203 3:0.634727 4:-0.527518 5:0.541339 6:0.694139 7:0.678321 8:-0.455712 9:0.591503 10:0.504574 11:0.806593 12:-0.112303 13:0.572338 14:0.372116 15:0.800459 16:-0.109261 17:0.572001 18:0.367945 19:0.738374 20:0.586266 21:0.717641 22:-0.43294 23:0.523895 24:0.678028 25:0.678007 26:-0.488187 27:0.450149 28:0.468967 29:0.903046 30:-0.0982797 31:0.495663 32:0.198437 33:0.89972 34:-0.0303066 35:0.547257 36:0.180237 
-1024 1:0.570222 2:0.799324 3:0.741634 4:-0.570449 5:0.67808 6:0.814169 7:0.77023 8:-0.485532 9:0.720925 10:0.632826 11:0.867917 12:-0.106537 13:0.714672 14:0.539589 15:0.868539 16:-0.0916302 17:0.698746 18:0.532156 19:0.767247 20:0.711244 21:0.790845 22:-0.471445 23:0.643831 24:0.788364 25:0.764393 26:-0.575129 27:0.601342 28:0.564904 29:0.941828 30:-0.0293877 31:0.628786 32:0.404552 33:0.944289 34:0.0180656 35:0.67339 36:0.357911 
-212.3905014068863 1:0.679701 2:0.893039 3:0.846318 4:-0.632618 5:0.813576 6:0.900039 7:0.868702 8:-0.532178 9:0.843757 10:0.731999 11:0.943394 12:-0.102058 13:0.832765 14:0.681239 15:0.950702 16:-0.100703 17:0.827521 18:0.672688 19:0.797298 20:0.826913 21:0.87712 22:-0.513807 23:0.776113 24:0.907163 25:0.861252 26:-0.654457 27:0.740421 28:0.651008 29:1 30:0.0202451 31:0.754109 32:0.591524 33:1 34:0.0968831 35:0.796385 36:0.572717 
-1024 1:-0.865279 2:-0.514098 3:-0.801784 4:-0.236093 5:-0.609161 6:-0.552578 7:-0.800877 8:0.195826 9:-0.701695 10:-0.577035 11:-0.667456 12:-0.0127452 13:-0.540246 14:-0.83077 15:-0.65728 16:-0.0190253 17:-0.533782 18:-0.839723 19:-0.689447 20:-0.407477 21:-0.409152 22:-0.497005 23:0.0494735 24:-0.459286 25:-0.554974 26:-0.0141778 27:-0.429925 28:-0.299417 29:-0.376732 30:-0.496549 31:-0.0944078 32:-0.780647 33:-0.353761 34:-0.439507 35:-0.0582531 36:-0.808982 
-1024 1:-0.856732 2:-0.578868 3:-0.781739 4:-0.155907 5:-0.738651 6:-0.644731 7:-0.794313 8:0.364763 9:-0.834026 10:-0.635787 11:-0.679248 12:0.185158 13:-0.695229 14:-0.852457 15:-0.669017 16:0.181344 17:-0.68899 18:-0.860386 19:-0.671769 20:-0.475698 21:-0.377779 22:-0.401129 23:-0.156928 24:-0.530067 25:-0.539267 26:0.160093 27:-0.58039 28:-0.322237 29:-0.351801 30:-0.335233 31:-0.252716 32:-0.789312 33:-0.320334 34:-0.289093 35:-0.224874 36:-0.817003 
-1024 1:-0.851034 2:-0.629252 3:-0.759467 4:-0.109374 5:-0.805095 6:-0.701562 7:-0.778995 8:0.43185 9:-0.881777 10:-0.674816 11:-0.693399 12:0.293235 13:-0.765892 14:-0.862978 15:-0.683102 16:0.292596 17:-0.760571 18:-0.870112 19:-0.662341 20:-0.514192 21:-0.364707 22:-0.331862 23:-0.287418 24:-0.57763 25:-0.531414 26:0.277801 27:-0.670604 28:-0.341119 29:-0.346261 30:-0.212032 31:-0.358942 32:-0.795172 33:-0.311977 34:-0.17277 35:-0.335961 36:-0.822079 
-1024 1:-0.821322 2:-0.719772 3:-0.648111 4:-0.0519226 5:-0.894587 6:-0.814758 7:-0.702411 8:0.545898 9:-0.946788 10:-0.759803 11:-0.636795 12:0.49689 13:-0.8761 14:-0.881616 15:-0.629111 16:0.505237 17:-0.873406 18:-0.886507 19:-0.634055 20:-0.583004 21:-0.349021 22:-0.168939 23:-0.53919 24:-0.668045 25:-0.492149 26:0.451034 27:-0.807235 28:-0.43091 29:-0.321329 30:-0.00143659 31:-0.543012 32:-0.8209 33:-0.281339 34:0.029795 35:-0.526925 36:-0.843009 
1024 1:-0.789168 2:-0.81247 3:-0.554571 4:0.0452751 5:-0.959302 6:-0.889865 7:-0.621448 8:0.626784 9:-0.984541 10:-0.851257 11:-0.558967 12:0.707434 13:-0.95744 14:-0.913845 15:-0.549301 16:0.728822 17:-0.957567 18:-0.916875 19:-0.598107 20:-0.683756 21:-0.296735 22:-0.0138995 23:-0.730821 24:-0.751135 25:-0.439793 26:0.609959 27:-0.912366 28:-0.54622 29:-0.282551 30:0.287869 31:-0.738804 32:-0.845473 33:-0.242341 34:0.301495 35:-0.725926 36:-0.862679 
1024 1:-0.803006 2:-0.924938 3:-0.556799 4:0.187268 5:-0.999243 6:-0.94943 7:-0.593002 8:0.576358 9:-0.998308 10:-0.954645 11:-0.511797 12:0.864528 13:-0.998518 14:-0.964246 15:-0.5047 16:0.89173 17:-0.998657 18:-0.96543 19:-0.540353 20:-0.823349 21:-0.207845 22:0.249018 23:-0.927025 24:-0.830437 25:-0.272254 26:0.705939 27:-0.983393 28:-0.740612 29:-0.166206 30:0.75928 31:-0.94937 32:-0.875905 33:-0.142062 34:0.726196 35:-0.936358 36:-0.887307 
1024 1:-0.84208 2:-0.938488 3:-0.681518 4:0.132845 5:-0.994853 6:-0.938326 7:-0.702411 8:0.422585 9:-0.986215 10:-0.958271 11:-0.662739 12:0.699652 13:-0.986002 14:-0.973454 15:-0.659628 16:0.724975 17:-0.986139 18:-0.974768 19:-0.559212 20:-0.869267 21:-0.226146 22:0.314242 23:-0.95658 24:-0.835737 25:-0.251312 26:0.644032 27:-0.985607 28:-0.803394 29:-0.141275 30:0.812792 31:-0.976413 32:-0.898055 33:-0.122563 34:0.779406 35:-0.965604 36:-0.907417 
87.24005756979467 1:-0.896619 2:-0.530855 3:-0.866372 4:0.189669 5:-0.815438 6:-0.277389 7:-0.71554 8:-0.673049 9:-0.190599 10:-0.796358 11:-0.707551 12:-0.403016 13:-0.277252 14:-0.883282 15:-0.706576 16:-0.390131 17:-0.281718 18:-0.889129 19:-0.730697 20:-0.41174 21:-0.560785 22:-0.0149656 23:-0.434207 24:-0.169273 25:-0.518325 26:-0.6087 27:-0.0601361 28:-0.545011 29:-0.429364 30:-0.547269 31:-0.0623997 32:-0.802474 33:-0.409472 34:-0.489005 35:-0.0251968 36:-0.832042 
-1024 1:-0.8897 2:-0.564197 3:-0.853009 4:0.388601 5:-0.924609 6:-0.283695 7:-0.689282 8:-0.751994 9:-0.235471 10:-0.868908 11:-0.693399 12:-0.396677 13:-0.340877 14:-0.91054 15:-0.687797 16:-0.386851 17:-0.346232 18:-0.9167 19:-0.72009 20:-0.453002 21:-0.560785 22:0.171991 23:-0.632721 24:-0.131325 25:-0.47906 26:-0.655984 27:-0.121191 28:-0.644371 29:-0.393353 30:-0.509974 31:-0.149395 32:-0.827501 33:-0.37326 34:-0.449096 35:-0.118004 36:-0.853956 
-1024 1:-0.890107 2:-0.578439 3:-0.853009 4:0.468251 5:-0.956342 6:-0.288418 7:-0.687094 8:-0.764407 9:-0.260637 10:-0.891256 11:-0.698117 12:-0.392957 13:-0.361271 14:-0.920984 15:-0.690144 16:-0.383272 17:-0.36831 18:-0.927318 19:-0.716555 20:-0.470277 21:-0.558171 22:0.241396 23:-0.695601 24:-0.116212 25:-0.460735 26:-0.670513 27:-0.151229 28:-0.682592 29:-0.382272 30:-0.495318 31:-0.182246 32:-0.837832 33:-0.359332 34:-0.434662 35:-0.152408 36:-0.862872 
1024 1:-0.893363 2:-0.596985 3:-0.868599 4:0.543268 5:-0.981997 6:-0.294996 7:-0.687094 8:-0.764508 9:-0.29954 10:-0.914641 11:-0.714626 12:-0.385941 13:-0.382616 14:-0.933518 15:-0.708924 16:-0.36714 17:-0.396214 18:-0.939697 19:-0.71184 20:-0.498203 21:-0.547713 22:0.340829 23:-0.77552 24:-0.0957916 25:-0.426703 26:-0.698199 27:-0.198219 28:-0.743393 29:-0.365651 30:-0.473886 31:-0.231449 32:-0.854133 33:-0.345404 34:-0.409859 35:-0.203936 36:-0.876453 
-1024 1:-0.891735 2:-0.581132 3:-0.853009 4:0.346858 5:-0.908794 6:-0.295614 7:-0.680529 8:-0.708066 9:-0.321699 10:-0.893884 11:-0.695758 12:-0.410776 13:-0.369213 14:-0.932432 15:-0.687797 16:-0.385829 17:-0.387778 18:-0.937756 19:-0.713019 20:-0.525027 21:-0.552942 22:0.379302 23:-0.807813 24:-0.0990359 25:-0.403143 26:-0.682378 27:-0.264056 28:-0.785522 29:-0.368421 30:-0.478497 31:-0.267757 32:-0.879564 33:-0.353761 34:-0.401849 35:-0.243789 36:-0.896489 
-340.594482827595 1:-0.887665 2:-0.600936 3:-0.839646 4:0.549011 5:-0.979424 6:-0.306088 7:-0.656459 8:-0.788808 9:-0.329484 10:-0.934299 11:-0.688682 12:-0.428507 13:-0.392274 14:-0.949364 15:-0.685449 16:-0.400001 17:-0.40481 18:-0.951404 19:-0.692983 20:-0.581999 21:-0.503271 22:0.539323 23:-0.908443 24:-0.105715 25:-0.316755 26:-0.725758 27:-0.35046 28:-0.87796 29:-0.293628 30:-0.492847 31:-0.344485 32:-0.920059 33:-0.28691 34:-0.398312 35:-0.324047 36:-0.928777 
513.5424468420417 1:-0.887665 2:-0.587518 3:-0.812919 4:0.43175 5:-0.932685 6:-0.285912 7:-0.652083 8:-0.769769 9:-0.349782 10:-0.934848 11:-0.667456 12:-0.46041 13:-0.389851 14:-0.9556 15:-0.664322 16:-0.430016 17:-0.403725 18:-0.957485 19:-0.698287 20:-0.636889 21:-0.498042 22:0.57481 23:-0.938423 24:-0.166021 25:-0.29843 26:-0.713318 27:-0.422453 28:-0.928209 29:-0.299169 30:-0.504871 31:-0.407143 32:-0.961458 33:-0.295264 34:-0.394344 35:-0.39288 36:-0.964806 
1024 1:-0.929994 2:-0.263561 3:-0.884189 4:-0.283012 5:-0.316075 6:-0.231537 7:-0.866523 8:-0.240365 9:-0.122061 10:-0.379454 11:-0.808964 12:-0.270446 13:-0.0996749 14:-0.728862 15:-0.805166 16:-0.278178 17:-0.0909698 18:-0.742128 19:-0.815554 20:-0.330388 21:-0.573857 22:-0.577894 23:0.29244 24:-0.428128 25:-0.662305 26:-0.241564 27:-0.208839 28:-0.309103 29:-0.556787 30:-0.485459 31:-0.00084979 32:-0.761318 33:-0.548746 34:-0.441269 35:0.0602482 36:-0.791392 
1024 1:-0.913307 2:-0.312316 3:-0.850781 4:-0.453598 5:-0.153735 6:-0.312065 7:-0.829324 8:-0.426337 9:0.00816452 10:-0.459545 11:-0.757077 12:-0.509985 13:0.0608364 14:-0.775209 15:-0.755872 16:-0.511142 17:0.0683193 18:-0.783564 19:-0.789626 20:-0.286466 21:-0.53987 22:-0.691416 23:0.58406 24:-0.324097 25:-0.636127 26:-0.380436 27:-0.0183534 28:-0.251872 29:-0.518005 30:-0.701833 31:0.234727 32:-0.744063 33:-0.512537 34:-0.636504 35:0.304379 36:-0.77316 
-22.37837018496928 1:-0.925924 2:-0.387473 3:-0.866372 4:-0.526154 5:0.0544493 6:-0.211156 7:-0.846829 8:-0.296211 9:-0.0310621 10:-0.345012 11:-0.775945 12:-0.414095 13:0.0495853 14:-0.722399 15:-0.772302 16:-0.418557 17:0.0571781 18:-0.732924 19:-0.804947 20:-0.279553 21:-0.597387 22:-0.714906 23:0.810638 24:-0.179255 25:-0.654452 26:-0.334572 27:0.0330361 28:-0.124754 29:-0.542936 30:-0.710654 31:0.326885 32:-0.704219 33:-0.54039 34:-0.625242 35:0.388718 36:-0.729223 
1024 1:-0.922261 2:-0.201333 3:-0.861917 4:-0.5223 5:0.121147 6:-0.126562 7:-0.849017 8:-0.29905 9:0.0766312 10:-0.235785 11:-0.775945 12:-0.429146 13:0.150571 14:-0.667971 15:-0.772302 16:-0.431074 17:0.158785 18:-0.67656 19:-0.807304 20:-0.287864 21:-0.594772 22:-0.70682 23:0.775472 24:-0.195741 25:-0.651834 26:-0.367005 27:0.0424327 28:-0.161596 29:-0.540166 30:-0.736512 31:0.337346 32:-0.714832 33:-0.537604 34:-0.643753 35:0.398784 36:-0.735974 
-1024 1:-0.942611 2:0.206693 3:-0.908688 4:-0.489551 5:0.328094 6:0.140864 7:-0.884028 8:-0.477683 9:0.516754 10:-0.091756 11:-0.823115 12:-0.53793 13:0.460438 14:-0.59742 15:-0.816903 16:-0.567584 17:0.473433 18:-0.626787 19:-0.850911 20:0.0844587 21:-0.673204 22:-0.593381 23:0.820308 24:0.086499 25:-0.691101 26:-0.427981 27:0.305436 28:0.0520406 29:-0.598338 30:-0.688014 31:0.49875 32:-0.605423 33:-0.593315 34:-0.621778 35:0.568166 36:-0.647572 
1024 1:-0.945461 2:0.257537 3:-0.904234 4:-0.52867 5:0.406025 6:0.147277 7:-0.884028 8:-0.535074 9:0.655903 10:-0.0512473 11:-0.825473 12:-0.576902 13:0.5608 14:-0.572463 15:-0.81925 16:-0.602794 17:0.574 18:-0.598685 19:-0.857983 20:0.106905 21:-0.675819 22:-0.607763 23:0.882766 24:0.118384 25:-0.693719 26:-0.430305 27:0.335877 28:0.0846759 29:-0.606649 30:-0.712046 31:0.559399 32:-0.590682 33:-0.604457 34:-0.637585 35:0.629494 36:-0.630778 
-1024 1:-0.932843 2:0.0253804 3:-0.866372 4:-0.912912 5:0.324034 6:-0.575391 7:-0.840265 8:-1 9:0.555023 10:-0.680494 11:-0.785379 12:-1 13:0.517301 14:-0.882938 15:-0.784039 16:-1 17:0.524223 18:-0.888484 19:-0.829107 20:-0.0516468 21:-0.631374 22:-0.793472 23:0.793557 24:-0.430088 25:-0.654452 26:-0.685009 27:0.190908 28:-0.443664 29:-0.554017 30:-1 31:0.43926 32:-0.834597 33:-0.557103 34:-0.874659 35:0.501066 36:-0.847996 
-1024 1:-0.796494 2:-0.408919 3:-0.683745 4:-0.295451 5:-0.408163 6:-0.345158 7:-0.660836 8:-0.171906 9:-0.360978 10:-0.492779 11:-0.542458 12:-0.264442 13:-0.295987 14:-0.768178 15:-0.542258 16:-0.250893 17:-0.297077 18:-0.77212 19:-0.650555 20:-0.407018 21:-0.453597 22:-0.557044 23:0.216456 24:-0.396771 25:-0.56021 26:-0.218927 27:-0.265112 28:-0.329738 29:-0.409973 30:-0.53205 31:-0.0306634 32:-0.768192 33:-0.406686 34:-0.462806 35:0.0202152 36:-0.78858 
-1024 1:-0.796087 2:-0.335434 3:-0.650338 4:-0.231334 5:-0.398346 6:-0.237043 7:-0.621448 8:-0.1548 9:-0.331727 10:-0.432706 11:-0.492929 12:-0.306531 13:-0.24539 14:-0.745353 15:-0.490615 16:-0.295452 17:-0.250016 18:-0.752535 19:-0.660573 20:-0.41963 21:-0.445754 22:-0.54641 23:0.201743 24:-0.387699 25:-0.554974 26:-0.165785 27:-0.304536 28:-0.313549 29:-0.404433 30:-0.492735 31:-0.0588789 32:-0.761242 33:-0.39833 34:-0.431198 35:-0.00685584 36:-0.782718 
-1024 1:-0.812775 2:-0.437269 3:-0.665928 4:-0.259119 5:-0.419501 6:-0.308033 7:-0.638954 8:-0.152953 9:-0.373094 10:-0.483252 11:-0.509439 12:-0.298146 13:-0.288052 14:-0.775168 15:-0.507047 16:-0.289532 17:-0.290086 18:-0.781949 19:-0.685912 20:-0.455655 21:-0.46144 22:-0.542654 23:0.188814 24:-0.404419 25:-0.56021 26:-0.214039 27:-0.283518 28:-0.348732 29:-0.415513 30:-0.547164 31:-0.0298075 32:-0.778235 33:-0.409472 34:-0.478474 35:0.0229641 36:-0.79759 
-1024 1:-0.814403 2:-0.457076 3:-0.652565 4:-0.291753 5:-0.399943 6:-0.325544 7:-0.630201 8:-0.166214 9:-0.378724 10:-0.501457 11:-0.469344 12:-0.408463 13:-0.258574 14:-0.809159 15:-0.471836 16:-0.400136 17:-0.256977 18:-0.814 19:-0.694162 20:-0.482173 21:-0.456211 22:-0.553846 23:0.185012 24:-0.43044 25:-0.565446 26:-0.170491 27:-0.333132 28:-0.362304 29:-0.423824 30:-0.508074 31:-0.070853 32:-0.783201 33:-0.417828 34:-0.446889 35:-0.0203709 36:-0.805601 
535.5299061011681 1:-0.79975 2:-0.311161 3:-0.657019 4:-0.247181 5:-0.405676 6:-0.270891 7:-0.628013 8:-0.168959 9:-0.360955 10:-0.483002 11:-0.466986 12:-0.455686 13:-0.217932 14:-0.808093 15:-0.471836 16:-0.434906 17:-0.221224 18:-0.80969 19:-0.683554 20:-0.418368 21:-0.450982 22:-0.511334 23:0.1397 24:-0.393123 25:-0.552357 26:-0.227986 27:-0.280684 28:-0.361392 29:-0.401663 30:-0.566584 31:-0.0214841 32:-0.781106 33:-0.395544 34:-0.499477 35:0.0308298 36:-0.802601 
1024 1:-0.800157 2:-0.247353 3:-0.639202 4:-0.20364 5:-0.407792 6:-0.209739 7:-0.608319 8:-0.213233 9:-0.301164 10:-0.454444 11:-0.443401 12:-0.503408 13:-0.167713 14:-0.796691 15:-0.448361 16:-0.489596 17:-0.168739 18:-0.800429 19:-0.686501 20:-0.372439 21:-0.458826 22:-0.490334 23:0.126407 24:-0.368284 25:-0.552357 26:-0.229887 27:-0.267415 28:-0.345694 29:-0.401663 30:-0.578061 31:-0.000273799 32:-0.774536 33:-0.401115 34:-0.503767 35:0.0506824 36:-0.795074 
1024 1:-0.806669 2:-0.306781 3:-0.648111 4:-0.238422 5:-0.389638 6:-0.234791 7:-0.612695 8:-0.229901 9:-0.292334 10:-0.462279 11:-0.443401 12:-0.528868 13:-0.156691 14:-0.803835 15:-0.446014 16:-0.515697 17:-0.158299 18:-0.80764 19:-0.687679 20:-0.333041 21:-0.46144 22:-0.45394 23:0.102556 24:-0.319737 25:-0.53665 26:-0.169126 27:-0.291232 28:-0.295894 29:-0.398893 30:-0.528597 31:-0.00875953 32:-0.748903 33:-0.392758 34:-0.45788 35:0.0346438 36:-0.77317 
-1024 1:-0.596237 2:-0.530637 3:-0.599113 4:-0.065646 5:-0.663328 6:-0.424615 7:-0.603943 8:0.0676111 9:-0.593236 10:-0.544733 11:-0.445759 12:-0.0752731 13:-0.516346 14:-0.810876 15:-0.441319 16:-0.0752887 17:-0.51164 18:-0.81734 19:-0.346468 20:-0.424216 21:-0.341177 22:-0.314348 23:-0.151821 24:-0.333199 25:-0.434557 26:-0.0245357 27:-0.424346 28:-0.297091 29:-0.243769 30:-0.385437 31:-0.202106 32:-0.763968 33:-0.245127 34:-0.324493 35:-0.153665 36:-0.778666 
-1024 1:-0.586875 2:-0.528242 3:-0.587977 4:-0.0515245 5:-0.666545 6:-0.413506 7:-0.59519 8:0.0827835 9:-0.600543 10:-0.540419 11:-0.424533 12:-0.082319 13:-0.520082 14:-0.81493 15:-0.42254 16:-0.0800823 17:-0.516746 18:-0.821454 19:-0.29225 20:-0.405679 21:-0.307193 22:-0.305536 23:-0.162402 24:-0.321631 25:-0.397907 26:0.0165078 27:-0.446925 28:-0.279798 29:-0.191137 30:-0.352552 31:-0.225904 32:-0.754071 33:-0.194987 34:-0.28519 35:-0.184489 36:-0.767506 
-1024 1:-0.582805 2:-0.528729 3:-0.583522 4:-0.0474648 5:-0.671628 6:-0.417629 7:-0.597378 8:0.0946713 9:-0.607624 10:-0.539332 11:-0.419816 12:-0.0895583 13:-0.523471 14:-0.820905 15:-0.417845 16:-0.0843466 17:-0.520885 18:-0.826384 19:-0.261017 20:-0.397476 21:-0.278434 22:-0.30428 23:-0.160003 24:-0.308052 25:-0.376965 26:0.0327177 27:-0.454673 28:-0.27152 29:-0.163436 30:-0.359474 31:-0.225458 32:-0.753773 33:-0.169917 34:-0.290781 35:-0.183371 36:-0.766463 
1024 1:-0.593387 2:-0.533443 3:-0.594658 4:-0.0367515 5:-0.678379 6:-0.414788 7:-0.608319 8:0.0826541 9:-0.597838 10:-0.537147 11:-0.42925 12:-0.102884 13:-0.521056 14:-0.827183 15:-0.431929 16:-0.0882158 17:-0.521719 18:-0.830921 19:-0.262784 20:-0.398874 21:-0.281049 22:-0.28881 23:-0.183795 24:-0.313109 25:-0.3822 26:0.0641733 27:-0.474535 28:-0.264947 29:-0.174516 30:-0.343949 31:-0.237327 32:-0.755156 33:-0.175488 34:-0.279315 35:-0.199696 36:-0.771554 
-1024 1:-0.594608 2:-0.536818 3:-0.596886 4:-0.0298204 5:-0.682527 6:-0.413098 7:-0.610507 8:0.0748487 9:-0.591631 10:-0.535916 11:-0.433967 12:-0.106954 13:-0.519597 14:-0.828771 15:-0.434277 16:-0.0904448 17:-0.522201 18:-0.832769 19:-0.249819 20:-0.398509 21:-0.281049 22:-0.261466 23:-0.212208 24:-0.300124 25:-0.371729 26:0.0610933 27:-0.46998 28:-0.261126 29:-0.160665 30:-0.351361 31:-0.235854 32:-0.756402 33:-0.161561 34:-0.275449 35:-0.205956 36:-0.771574 
1024 1:-0.601121 2:-0.548861 3:-0.60134 4:-0.0430311 5:-0.683253 6:-0.430388 7:-0.617072 8:0.0805842 9:-0.598067 10:-0.539709 11:-0.445759 12:-0.105652 13:-0.526237 14:-0.83488 15:-0.446014 16:-0.0840931 17:-0.530546 18:-0.837653 19:-0.234497 20:-0.403342 21:-0.267977 22:-0.261489 23:-0.214724 24:-0.30149 25:-0.35864 26:0.0733193 27:-0.476218 28:-0.256172 29:-0.146815 30:-0.319893 31:-0.252481 32:-0.748847 33:-0.142062 34:-0.247817 35:-0.225542 36:-0.76591 
1024 1:-0.610483 2:-0.563505 3:-0.596886 4:-0.0498475 5:-0.692658 6:-0.455525 7:-0.634577 8:0.128215 9:-0.623818 10:-0.531236 11:-0.436325 12:-0.117623 13:-0.542882 14:-0.852549 15:-0.434277 16:-0.0976613 17:-0.547173 18:-0.855813 19:-0.196192 20:-0.384022 21:-0.226146 22:-0.257764 23:-0.20405 24:-0.267652 25:-0.327226 26:0.0845343 27:-0.47676 28:-0.243061 29:-0.0914125 30:-0.388552 31:-0.223235 32:-0.758946 33:-0.0835651 34:-0.304535 35:-0.198107 36:-0.773111 
-1024 1:-0.866907 2:-0.304055 3:-0.746104 4:-0.375215 5:-0.243345 6:-0.257723 7:-0.730857 8:-0.237225 9:-0.214488 10:-0.416131 11:-0.625003 12:-0.411394 13:-0.106624 14:-0.754039 15:-0.624416 16:-0.400322 17:-0.111818 18:-0.761827 19:-0.735411 20:-0.377547 21:-0.482355 22:-0.588683 23:0.340977 24:-0.330329 25:-0.583771 26:-0.252585 27:-0.190246 28:-0.278215 29:-0.445985 30:-0.56751 31:0.0507339 32:-0.747338 33:-0.437327 34:-0.503022 35:0.102194 36:-0.77401 
-1024 1:-0.868942 2:-0.205903 3:-0.712699 4:-0.211771 5:-0.261098 6:-0.00886316 7:-0.693658 8:-0.0582891 9:-0.223611 10:-0.2006 11:-0.580191 12:-0.324789 13:-0.0901506 14:-0.666362 15:-0.579815 16:-0.322335 17:-0.0906929 18:-0.677535 19:-0.757215 20:-0.314514 21:-0.505885 22:-0.512201 23:0.291895 24:-0.227678 25:-0.594242 26:-0.216061 27:-0.159629 28:-0.186765 29:-0.462605 30:-0.576057 31:0.12528 32:-0.709493 33:-0.456826 34:-0.508401 35:0.180241 36:-0.7368 
1024 1:-0.84208 2:-0.28075 3:-0.685973 4:-0.342219 5:-0.2961 6:-0.263422 7:-0.652083 8:-0.394397 9:-0.146326 10:-0.485076 11:-0.52359 12:-0.582966 13:-0.0571994 14:-0.795184 15:-0.521132 16:-0.584231 17:-0.0554104 18:-0.803805 19:-0.730697 20:-0.431213 21:-0.474512 22:-0.553054 23:0.222488 24:-0.392455 25:-0.573299 26:-0.241129 27:-0.252919 28:-0.345267 29:-0.432134 30:-0.547518 31:-0.0194722 32:-0.77613 33:-0.428971 34:-0.468959 35:0.0264914 36:-0.794491 
1024 1:-0.845743 2:-0.370759 3:-0.679291 4:-0.33875 5:-0.314822 6:-0.281812 7:-0.64333 8:-0.4099 9:-0.161913 10:-0.513119 11:-0.504722 12:-0.646499 13:-0.0493981 14:-0.820715 15:-0.5047 16:-0.645788 17:-0.0480967 18:-0.828655 19:-0.728341 20:-0.370756 21:-0.482355 22:-0.505676 23:0.169076 24:-0.359344 25:-0.573299 26:-0.273234 27:-0.220205 28:-0.34376 29:-0.437674 30:-0.587992 31:0.0267613 32:-0.773097 33:-0.434542 34:-0.509687 35:0.0759509 36:-0.792974 
1024 1:-0.865279 2:-0.448025 3:-0.6882 4:-0.326384 5:-0.298087 6:-0.242855 7:-0.6674 8:-0.265428 9:-0.227836 10:-0.441628 11:-0.535382 12:-0.465916 13:-0.145612 14:-0.785033 15:-0.535216 16:-0.463794 17:-0.142738 18:-0.792283 19:-0.746608 20:-0.50126 21:-0.479741 22:-0.544941 23:0.221474 24:-0.37881 25:-0.557592 26:-0.327026 27:-0.191043 28:-0.371756 29:-0.421054 30:-0.637689 31:0.0568426 32:-0.780077 33:-0.417828 34:-0.564687 35:0.111826 36:-0.802675 
1024 1:-0.856325 2:-0.490798 3:-0.665928 4:-0.332983 5:-0.34028 6:-0.305005 7:-0.645518 8:-0.309852 9:-0.240366 10:-0.494692 11:-0.495288 12:-0.545415 13:-0.140362 14:-0.816108 15:-0.49531 16:-0.541983 17:-0.138888 18:-0.822801 19:-0.756626 20:-0.517947 21:-0.474512 22:-0.497956 23:0.130644 24:-0.387794 25:-0.570681 26:-0.238806 27:-0.261687 28:-0.353522 29:-0.443215 30:-0.548154 31:-0.00934769 32:-0.772996 33:-0.434542 34:-0.477363 35:0.0355574 36:-0.795959 
1024 1:0.224689 2:0.036079 3:0.336288 4:-0.216314 5:-0.331765 6:-0.104396 7:0.28226 8:-0.0103857 9:-0.278044 10:-0.156381 11:0.499988 12:0.063324 13:-0.246096 14:-0.386486 15:0.497641 16:0.0621454 17:-0.239171 18:-0.390173 19:0.0601492 20:-0.154356 21:0.0457495 22:-0.347473 23:-0.137698 24:-0.296763 25:-0.0471235 26:-0.052195 27:-0.354715 28:-0.203556 29:0.157893 30:-0.306251 31:-0.127418 32:-0.606534 33:0.14763 34:-0.177798 35:-0.117307 36:-0.60543 
-1024 1:0.428183 2:0.307042 3:0.532277 4:-0.389102 5:-0.0187692 6:0.133577 7:0.501076 8:-0.209589 9:0.0378417 10:0.0744601 11:0.660364 12:-0.00029761 13:0.041272 14:-0.115388 15:0.666653 16:0.00451031 17:0.0417237 18:-0.119871 19:0.238102 20:0.0616371 21:0.2732 22:-0.424557 23:0.0306617 24:-0.154255 25:0.185861 26:-0.177857 27:-0.170798 28:-0.0597057 29:0.39058 30:-0.247725 31:0.0158418 32:-0.422523 33:0.378828 34:-0.113019 35:0.0272779 36:-0.415696 
1024 1:0.570629 2:0.4642 3:0.630273 4:-0.484604 5:0.185449 6:0.287596 7:0.608297 8:-0.304965 9:0.237253 10:0.232663 11:0.738195 12:-0.0149921 13:0.219602 14:0.0723263 15:0.732381 16:-0.010206 17:0.223322 18:0.0720187 19:0.336506 20:0.208394 21:0.41699 22:-0.486799 23:0.165542 24:-0.0543495 25:0.306281 26:-0.2762 27:-0.0101638 28:0.0643212 29:0.501384 30:-0.186898 31:0.131511 32:-0.262192 33:0.484679 34:-0.0538093 35:0.143747 36:-0.254529 
-1024 1:0.732203 2:0.646061 3:0.752772 4:-0.565117 5:0.415247 6:0.483368 7:0.735216 8:-0.415642 9:0.475164 10:0.412815 11:0.830181 12:-0.0266882 13:0.436774 14:0.308648 15:0.821588 16:-0.0182425 17:0.437411 18:0.310021 19:0.478515 20:0.408019 21:0.573852 22:-0.541455 23:0.368619 24:0.1591 25:0.476437 26:-0.383141 27:0.204026 28:0.247648 29:0.659278 30:-0.0903523 31:0.305306 32:-0.00236946 33:0.643452 34:0.00669419 35:0.326227 36:-0.0161637 
1024 1:0.820926 2:0.734759 3:0.815135 4:-0.602263 5:0.533365 6:0.585859 7:0.803052 8:-0.437039 9:0.580141 10:0.520899 11:0.870275 12:-0.0292848 13:0.552135 14:0.438378 15:0.868539 16:-0.034845 17:0.56111 18:0.436193 19:0.565135 20:0.521922 21:0.670585 22:-0.579849 23:0.489398 24:0.270478 25:0.581147 26:-0.460917 27:0.34088 28:0.345986 29:0.739612 30:-0.0324782 31:0.410907 32:0.162155 33:0.73259 34:0.0466328 35:0.440124 36:0.140378 
1024 1:0.842496 2:0.837711 3:0.877499 4:-0.665819 5:0.685528 6:0.690617 7:0.855573 8:-0.480666 9:0.711937 10:0.633747 11:0.919806 12:-0.0336448 13:0.68483 14:0.587248 15:0.908446 16:-0.034256 17:0.688974 18:0.585093 19:0.637023 20:0.663782 21:0.783002 22:-0.607325 23:0.61683 24:0.416376 25:0.696332 26:-0.540459 27:0.502666 28:0.471987 29:0.814402 30:0.00190338 31:0.5693 32:0.36552 33:0.830081 34:0.104418 35:0.566126 36:0.333066 
1024 1:0.86895 2:0.927266 3:0.937635 4:-0.70413 5:0.806999 6:0.789847 7:0.91028 8:-0.520886 9:0.832587 10:0.735254 11:0.957545 12:-0.0466578 13:0.812532 14:0.720836 15:0.946007 16:-0.0394075 17:0.814214 18:0.725574 19:0.734249 20:0.797422 21:0.871891 22:-0.642892 23:0.788093 24:0.603387 25:0.845546 26:-0.610622 27:0.644308 28:0.581847 29:0.919667 30:0.0495966 31:0.704618 32:0.564403 33:0.92479 34:0.161625 35:0.717704 36:0.558814 
1024 1:-0.818066 2:-0.428736 3:-0.663701 4:-0.255753 5:-0.641469 6:-0.613049 7:-0.711164 8:0.251211 9:-0.710856 10:-0.541406 11:-0.610852 12:0.0292402 13:-0.512327 14:-0.771186 15:-0.598594 16:0.0103625 17:-0.496129 18:-0.780008 19:-0.582784 20:-0.395508 21:-0.288892 22:-0.536107 23:-0.068227 24:-0.635125 25:-0.50262 26:-0.00619001 27:-0.524425 28:-0.436606 29:-0.351801 30:-0.563301 31:-0.124773 32:-0.832477 33:-0.350975 34:-0.396317 35:-0.124374 36:-0.822686 
1024 1:-0.806669 2:-0.50984 3:-0.652565 4:-0.23368 5:-0.723959 6:-0.704794 7:-0.711164 8:0.437118 9:-0.851414 10:-0.619817 11:-0.627361 12:0.173098 13:-0.653698 14:-0.81414 15:-0.615026 16:0.157637 17:-0.639076 18:-0.82102 19:-0.548604 20:-0.463934 21:-0.244447 22:-0.446543 23:-0.238853 24:-0.682997 25:-0.484296 26:0.126294 27:-0.635887 28:-0.465935 29:-0.304709 30:-0.476695 31:-0.243147 32:-0.851983 33:-0.300835 34:-0.310717 35:-0.248357 36:-0.841324 
-1024 1:-0.801378 2:-0.562414 3:-0.643656 4:-0.200449 5:-0.776132 6:-0.748282 7:-0.704599 8:0.552712 9:-0.912932 10:-0.660131 11:-0.646229 12:0.275647 13:-0.731413 14:-0.833435 15:-0.633806 16:0.26127 17:-0.717194 18:-0.839258 19:-0.515013 20:-0.487375 21:-0.220917 22:-0.370331 23:-0.358202 24:-0.711609 25:-0.463353 26:0.214702 27:-0.705232 28:-0.492558 29:-0.26039 30:-0.39227 31:-0.337857 32:-0.863904 33:-0.256269 34:-0.230614 35:-0.34533 36:-0.853244 
1024 1:-0.774923 2:-0.695533 3:-0.610249 4:-0.123338 5:-0.874711 6:-0.837446 7:-0.6674 8:0.661226 9:-0.971325 10:-0.762731 11:-0.636795 12:0.444183 13:-0.855 14:-0.881058 15:-0.633806 16:0.444195 17:-0.846257 18:-0.882852 19:-0.441348 20:-0.583919 21:-0.176472 22:-0.198808 23:-0.597596 24:-0.791454 25:-0.416232 26:0.372576 27:-0.830093 28:-0.585171 29:-0.157895 30:-0.178994 31:-0.545478 32:-0.895865 33:-0.153204 34:-0.0351445 35:-0.552095 36:-0.8849 
-1024 1:-0.730965 2:-0.806347 3:-0.543436 4:-0.0271783 5:-0.94777 6:-0.909463 7:-0.603943 8:0.612985 9:-0.985762 10:-0.868126 11:-0.566043 12:0.59127 13:-0.938755 14:-0.929649 15:-0.56808 16:0.616019 17:-0.937879 18:-0.928898 19:-0.357075 20:-0.700412 21:-0.134642 22:0.00557836 23:-0.797276 24:-0.853037 25:-0.327226 26:0.519174 27:-0.923104 28:-0.690228 29:-0.0664842 30:0.164532 31:-0.760789 32:-0.916022 33:-0.0668546 34:0.279285 35:-0.765894 36:-0.904619 
1024 1:-0.717533 2:-0.952103 3:-0.469939 4:0.132936 5:-0.998653 6:-0.979427 7:-0.533923 8:0.537482 9:-0.999646 10:-0.986281 11:-0.424533 12:0.811062 13:-0.998896 14:-0.986558 15:-0.434277 16:0.849907 17:-0.999344 18:-0.984787 19:-0.207389 20:-0.873495 21:-0.00392422 22:0.236724 23:-0.948278 24:-0.928588 25:-0.12042 26:0.587033 27:-0.984459 28:-0.856448 29:0.0360101 30:0.639315 31:-0.95358 32:-0.937556 33:0.0389963 34:0.699667 35:-0.954711 36:-0.929207 
-1024 1:-0.778179 2:-0.956878 3:-0.699336 4:0.123139 5:-0.998206 6:-0.960317 7:-0.680529 8:0.518788 9:-1 10:-0.982499 11:-0.594342 12:0.748624 13:-0.996695 14:-0.990053 15:-0.603289 16:0.776661 17:-0.996514 18:-0.98901 19:-0.278107 20:-0.912723 21:-0.0562124 22:0.303519 23:-0.975834 24:-0.939723 25:-0.146598 26:0.5902 27:-0.994507 28:-0.890439 29:0.03324 30:0.738058 31:-0.989924 32:-0.956007 33:0.0334252 34:0.77269 35:-0.987554 36:-0.949391 
1024 1:-0.871384 2:-0.444252 3:-0.783966 4:0.31435 5:-0.882143 6:-0.318546 7:-0.687094 8:-0.521957 9:-0.297606 10:-0.752556 11:-0.679248 12:-0.253556 13:-0.360877 14:-0.8431 15:-0.671365 16:-0.220782 17:-0.369732 18:-0.839573 19:-0.64643 20:-0.43679 21:-0.458826 22:-0.0186506 23:-0.535622 24:-0.37605 25:-0.473824 26:-0.508361 27:-0.275756 28:-0.656453 29:-0.418284 30:-0.402193 31:-0.224854 32:-0.821274 33:-0.409472 34:-0.283275 35:-0.217824 36:-0.825316 
1024 1:-0.866907 2:-0.503273 3:-0.779512 4:0.446595 5:-0.94377 6:-0.340401 7:-0.665212 8:-0.587268 9:-0.362557 10:-0.842285 11:-0.662739 12:-0.260096 13:-0.427242 14:-0.884932 15:-0.659628 16:-0.223257 17:-0.434554 18:-0.88055 19:-0.632876 20:-0.498203 21:-0.464055 22:0.202812 23:-0.735504 24:-0.338586 25:-0.429321 26:-0.560164 27:-0.337384 28:-0.759068 29:-0.385042 30:-0.356496 31:-0.325023 32:-0.856727 33:-0.376045 34:-0.233961 35:-0.323671 36:-0.858681 
1024 1:-0.867314 2:-0.524521 3:-0.783966 4:0.503853 5:-0.964944 6:-0.350948 7:-0.660836 8:-0.609053 9:-0.387275 10:-0.872407 11:-0.665097 12:-0.26244 13:-0.449121 14:-0.900157 15:-0.661975 16:-0.230578 17:-0.452489 18:-0.896134 19:-0.628162 20:-0.521967 21:-0.464055 22:0.274614 23:-0.789591 24:-0.327334 25:-0.413614 26:-0.578738 27:-0.364101 28:-0.798293 29:-0.373962 30:-0.352987 31:-0.355344 32:-0.873119 33:-0.364903 34:-0.230138 35:-0.354179 36:-0.874353 
1024 1:-0.868535 2:-0.545489 3:-0.790648 4:0.555079 5:-0.981702 6:-0.369429 7:-0.658647 8:-0.606523 9:-0.426192 10:-0.897256 11:-0.665097 12:-0.262708 13:-0.475016 14:-0.915787 15:-0.66667 16:-0.233478 17:-0.474066 18:-0.911832 19:-0.624626 20:-0.559219 21:-0.458826 22:0.366234 23:-0.850397 24:-0.313946 25:-0.395289 26:-0.584931 27:-0.410246 28:-0.844629 29:-0.360111 30:-0.342508 31:-0.404145 32:-0.897641 33:-0.350975 34:-0.217971 35:-0.403229 36:-0.896944 
-1024 1:-0.866093 2:-0.520165 3:-0.759467 4:0.418641 5:-0.940084 6:-0.382624 7:-0.649895 8:-0.525961 9:-0.43668 10:-0.854268 11:-0.648588 12:-0.258296 13:-0.465545 14:-0.904334 15:-0.650238 16:-0.232673 17:-0.461848 18:-0.900196 19:-0.62109 20:-0.580956 21:-0.445754 22:0.407349 23:-0.878303 24:-0.32522 25:-0.3822 26:-0.530041 27:-0.467794 28:-0.856693 29:-0.33518 30:-0.351651 31:-0.444469 32:-0.923996 33:-0.325905 34:-0.222977 35:-0.441705 36:-0.919896 
-1024 1:-0.859174 2:-0.555082 3:-0.726062 4:0.514096 5:-0.969032 6:-0.408051 7:-0.612695 8:-0.626648 9:-0.433157 10:-0.900655 11:-0.627361 12:-0.291918 13:-0.469912 14:-0.91776 15:-0.622069 16:-0.256656 17:-0.476965 18:-0.914356 19:-0.602232 20:-0.647682 21:-0.403923 22:0.542636 23:-0.949135 24:-0.346022 25:-0.308901 26:-0.561611 27:-0.537425 28:-0.934209 29:-0.282551 30:-0.347844 31:-0.517624 32:-0.960893 33:-0.275768 34:-0.21705 35:-0.513614 36:-0.954566 
-1024 1:-0.857953 2:-0.553942 3:-0.699336 4:0.517082 5:-0.966012 6:-0.407688 7:-0.606131 8:-0.604978 9:-0.451336 10:-0.899674 11:-0.615569 12:-0.32217 13:-0.465167 14:-0.925811 15:-0.615026 16:-0.290159 17:-0.466813 18:-0.921764 19:-0.597517 20:-0.694219 21:-0.37255 22:0.594496 23:-0.978083 24:-0.410057 25:-0.27749 26:-0.558544 27:-0.594487 28:-0.980405 29:-0.27147 30:-0.35285 31:-0.57059 32:-0.992541 33:-0.270197 34:-0.206592 35:-0.567437 36:-0.980869 
1024 1:-0.901503 2:-0.354688 3:-0.799556 4:-0.256277 5:-0.502801 6:-0.431522 7:-0.824947 8:-0.0142596 9:-0.388191 10:-0.382038 11:-0.785379 12:0.0276629 13:-0.344488 14:-0.666669 15:-0.781691 16:0.00916227 17:-0.321666 18:-0.678227 19:-0.76134 20:-0.471414 21:-0.547713 22:-0.680963 23:0.156668 24:-0.765169 25:-0.68063 26:-0.130372 27:-0.446004 28:-0.490969 29:-0.598338 30:-0.391473 31:-0.183792 32:-0.832361 33:-0.607243 34:-0.244272 35:-0.17605 36:-0.820868 
-1024 1:-0.882781 2:-0.245405 3:-0.748331 4:-0.369491 5:-0.355256 6:-0.39109 7:-0.768054 8:-0.259304 9:-0.162663 10:-0.398913 11:-0.707551 12:-0.271205 13:-0.106964 14:-0.686122 15:-0.704229 16:-0.29083 17:-0.0805114 18:-0.694601 19:-0.725983 20:-0.324744 21:-0.479741 22:-0.778078 23:0.464159 24:-0.592142 25:-0.617802 26:-0.231976 27:-0.278801 28:-0.378633 29:-0.520775 30:-0.565337 31:0.0363584 32:-0.77768 33:-0.532033 34:-0.409025 35:0.0577779 36:-0.765361 
-1024 1:-0.930401 2:0.0367008 3:-0.841873 4:-0.3391 5:-0.0826476 6:-0.0143296 7:-0.851206 8:-0.0938376 9:0.0437922 10:0.0431178 11:-0.816039 12:-0.106924 13:0.102223 14:-0.418458 15:-0.807513 16:-0.157004 17:0.140333 18:-0.454802 19:-0.847965 20:-0.0354251 21:-0.660132 22:-0.769646 23:0.778279 24:-0.423063 25:-0.722513 26:-0.278022 27:0.0380637 28:-0.0550202 29:-0.659281 30:-0.571381 31:0.387291 32:-0.614401 33:-0.671311 34:-0.41523 35:0.418362 36:-0.600591 
1024 1:-0.92918 2:-0.0068501 3:-0.841873 4:-0.394096 5:-0.056633 6:-0.0857452 7:-0.851206 8:-0.176147 9:0.0718715 10:-0.0564765 11:-0.811322 12:-0.178603 13:0.123675 14:-0.474788 15:-0.802818 16:-0.232099 17:0.164998 18:-0.509783 19:-0.845608 20:-0.103629 21:-0.657518 22:-0.764395 23:0.721638 24:-0.465159 25:-0.717277 26:-0.310194 27:0.0197569 28:-0.130141 29:-0.659281 30:-0.561932 31:0.343106 32:-0.635664 33:-0.668525 34:-0.406 35:0.356997 36:-0.630324 
-1024 1:-0.940169 2:0.111619 3:-0.886416 4:-0.461844 5:0.0761836 6:-0.0788668 7:-0.892781 8:-0.167055 9:0.105517 10:-0.0264097 11:-0.856134 12:-0.18995 13:0.168496 14:-0.481583 15:-0.83803 16:-0.253867 17:0.191271 18:-0.537039 19:-0.865054 20:-0.0526239 21:-0.691505 22:-0.755777 23:0.717055 24:-0.490269 25:-0.748691 26:-0.406301 27:0.124543 28:-0.170266 29:-0.698063 30:-0.518038 31:0.324013 32:-0.632797 33:-0.707523 34:-0.362999 35:0.339218 36:-0.623533 
1024 1:-0.942204 2:0.0977774 3:-0.890871 4:-0.495426 5:0.139146 6:-0.0756232 7:-0.897157 8:-0.20555 9:0.175009 10:-0.0137441 11:-0.858492 12:-0.225626 13:0.226658 14:-0.476064 15:-0.842725 16:-0.2932 17:0.252596 18:-0.534696 19:-0.865644 20:-0.054373 21:-0.691505 22:-0.783926 23:0.789252 24:-0.484918 25:-0.748691 26:-0.42314 27:0.161967 28:-0.152202 29:-0.698063 30:-0.541707 31:0.36686 32:-0.624359 33:-0.707523 34:-0.389352 35:0.38599 36:-0.617429 
552.9202963866393 1:-0.923889 2:-0.116832 3:-0.830737 4:-0.861505 5:0.0720926 6:-0.664459 7:-0.838076 8:-0.712745 9:0.154278 10:-0.661091 11:-0.794813 12:-0.69893 13:0.210643 14:-0.843269 15:-0.784039 16:-0.748712 17:0.248267 18:-0.859984 19:-0.833233 20:-0.200451 21:-0.649675 22:-0.917435 23:0.71261 24:-0.78244 25:-0.704191 26:-0.625606 27:0.0477603 28:-0.543509 29:-0.648201 30:-0.805541 31:0.287564 32:-0.836091 33:-0.654597 34:-0.626236 35:0.296878 36:-0.828993 
1024 1:-0.717126 2:-0.298625 3:-0.483302 4:-0.337942 5:-0.392646 6:-0.359777 7:-0.520794 8:-0.0985309 9:-0.37459 10:-0.412133 11:-0.422174 12:-0.0718654 13:-0.343143 14:-0.65642 15:-0.420192 16:-0.0723141 17:-0.333703 18:-0.660526 19:-0.60341 20:-0.381212 21:-0.414381 22:-0.584273 23:0.138452 24:-0.527813 25:-0.539267 26:-0.123891 27:-0.387825 28:-0.377219 29:-0.434904 30:-0.411127 31:-0.122185 32:-0.760738 33:-0.445684 34:-0.265568 35:-0.112809 36:-0.752472 
-1024 1:-0.728116 2:-0.315477 3:-0.483302 4:-0.36452 5:-0.372221 6:-0.365618 7:-0.512041 8:-0.0743456 9:-0.391251 10:-0.40799 11:-0.405665 12:-0.135398 13:-0.316289 14:-0.673259 15:-0.401413 16:-0.14934 17:-0.301375 18:-0.68102 19:-0.574534 20:-0.367696 21:-0.390851 22:-0.602047 23:0.159657 24:-0.52603 25:-0.507853 26:-0.123696 27:-0.390918 28:-0.377581 29:-0.390582 30:-0.458868 31:-0.0952475 32:-0.761606 33:-0.401115 34:-0.316505 35:-0.0789292 36:-0.754103 
1024 1:-0.735035 2:-0.332666 3:-0.47662 4:-0.320304 5:-0.39254 6:-0.337237 7:-0.492347 8:-0.0854212 9:-0.387395 10:-0.411994 11:-0.379723 12:-0.165761 13:-0.308526 14:-0.682366 15:-0.380288 16:-0.159896 17:-0.300833 18:-0.683787 19:-0.592803 20:-0.414824 21:-0.403923 22:-0.584715 23:0.0966641 24:-0.573094 25:-0.507853 26:-0.145705 27:-0.403118 28:-0.422526 29:-0.393353 30:-0.457918 31:-0.121877 32:-0.779608 33:-0.39833 34:-0.3128 35:-0.11462 36:-0.774583 
1024 1:-0.734628 2:-0.22111 3:-0.463257 4:-0.257357 5:-0.379189 6:-0.237281 7:-0.474842 8:-0.0792761 9:-0.347487 10:-0.353252 11:-0.351421 12:-0.224093 13:-0.245749 14:-0.663415 15:-0.345077 16:-0.226157 17:-0.237771 18:-0.668373 19:-0.597517 20:-0.357546 21:-0.390851 22:-0.554288 23:0.0976958 24:-0.50627 25:-0.515707 26:-0.0973429 27:-0.400625 28:-0.359604 29:-0.404433 30:-0.457886 31:-0.0808355 32:-0.754419 33:-0.409472 34:-0.319195 35:-0.071465 36:-0.752862 
1024 1:-0.735442 2:-0.244434 3:-0.498892 4:-0.280225 5:-0.38896 6:-0.282861 7:-0.516417 8:-0.0210876 9:-0.400548 10:-0.366417 11:-0.393872 12:-0.228371 13:-0.263334 14:-0.688398 15:-0.389676 16:-0.227089 17:-0.255467 18:-0.691788 19:-0.529745 20:-0.369696 21:-0.320262 22:-0.576036 23:0.0805602 24:-0.538757 25:-0.450264 26:-0.0727502 27:-0.433918 28:-0.373141 29:-0.32687 30:-0.450023 31:-0.120692 32:-0.759981 33:-0.325905 34:-0.309672 35:-0.116492 36:-0.758981 
1024 1:-0.765968 2:-0.311697 3:-0.516709 4:-0.277613 5:-0.389301 6:-0.281013 7:-0.538299 8:0.0274699 9:-0.441447 10:-0.372605 11:-0.415099 12:-0.224949 13:-0.275991 14:-0.70042 15:-0.41315 16:-0.220752 17:-0.268517 18:-0.702783 19:-0.572177 20:-0.386108 21:-0.338563 22:-0.517319 23:0.0206319 24:-0.507606 25:-0.445028 26:-0.0826864 27:-0.445873 28:-0.402908 29:-0.32964 30:-0.46628 31:-0.131945 32:-0.777856 33:-0.328691 34:-0.316578 35:-0.131052 36:-0.773659 
1024 1:-0.772888 2:-0.268554 3:-0.552344 4:-0.230695 5:-0.415512 6:-0.257043 7:-0.562369 8:0.0809364 9:-0.457015 10:-0.338812 11:-0.42925 12:-0.192026 13:-0.291059 14:-0.693881 15:-0.427234 16:-0.194018 17:-0.277829 18:-0.695721 19:-0.585142 20:-0.337444 21:-0.341177 22:-0.509692 23:0.039101 24:-0.469878 25:-0.439793 26:-0.102646 27:-0.398125 28:-0.354831 29:-0.33241 30:-0.475745 31:-0.0775905 32:-0.747106 33:-0.337047 34:-0.315117 35:-0.0802442 36:-0.740343 
-154.4608905137178 1:-0.54088 2:-0.517843 3:-0.469939 4:-0.0564649 5:-0.695091 6:-0.477805 7:-0.531735 8:0.195897 9:-0.648882 10:-0.506032 11:-0.415099 12:0.131343 13:-0.58216 14:-0.747946 15:-0.41315 16:0.12942 17:-0.574706 18:-0.753981 19:-0.315234 20:-0.442629 21:-0.294121 22:-0.469091 23:-0.0886361 24:-0.540901 25:-0.424086 26:0.0384156 27:-0.514335 28:-0.363752 29:-0.296398 30:-0.319627 31:-0.246871 32:-0.766501 33:-0.306406 34:-0.186802 35:-0.234592 36:-0.758175 
-1024 1:-0.560417 2:-0.532423 3:-0.496665 4:-0.0618578 5:-0.699659 6:-0.489787 7:-0.547052 8:0.157496 9:-0.633413 10:-0.517949 11:-0.424533 12:0.0931743 13:-0.574042 14:-0.76374 15:-0.427234 16:0.105325 17:-0.569342 18:-0.764527 19:-0.279874 20:-0.463886 21:-0.265362 22:-0.482575 23:-0.121193 24:-0.599049 25:-0.408379 26:0.0731118 27:-0.537994 28:-0.361036 29:-0.27147 30:-0.315571 31:-0.264337 32:-0.772981 33:-0.284125 34:-0.180743 35:-0.253822 36:-0.764654 
1024 1:-0.561639 2:-0.543578 3:-0.505574 4:-0.0425123 5:-0.715849 6:-0.49531 7:-0.551428 8:0.172704 9:-0.648909 10:-0.527143 11:-0.424533 12:0.089417 13:-0.582642 14:-0.774061 15:-0.427234 16:0.103782 17:-0.57848 18:-0.774082 19:-0.271035 20:-0.465937 21:-0.262748 22:-0.477359 23:-0.128474 24:-0.598329 25:-0.403143 26:0.0895627 27:-0.548584 28:-0.359184 29:-0.26316 30:-0.333985 31:-0.259802 32:-0.778977 33:-0.278554 34:-0.202609 35:-0.2424 36:-0.769424 
1024 1:-0.581584 2:-0.553192 3:-0.527845 4:-0.0297119 5:-0.724917 6:-0.494874 7:-0.564558 8:0.216532 9:-0.673412 10:-0.523927 11:-0.436325 12:0.0911952 13:-0.591925 14:-0.782926 15:-0.438972 16:0.0976539 17:-0.58535 18:-0.785263 19:-0.308751 20:-0.478469 21:-0.286278 22:-0.475678 23:-0.136735 24:-0.613127 25:-0.426703 26:0.103309 27:-0.555342 28:-0.353826 29:-0.285321 30:-0.349792 31:-0.251962 32:-0.785871 33:-0.300835 34:-0.201476 35:-0.242326 36:-0.772147 
1024 1:-0.581584 2:-0.560062 3:-0.525618 4:-0.0385733 5:-0.7262 6:-0.507304 7:-0.566746 8:0.232546 9:-0.682174 10:-0.522779 11:-0.436325 12:0.0850049 13:-0.592846 14:-0.787313 15:-0.434277 16:0.0792548 17:-0.582914 18:-0.792934 19:-0.296965 20:-0.480285 21:-0.278434 22:-0.47075 23:-0.152308 24:-0.622067 25:-0.41885 26:0.124487 27:-0.567304 28:-0.348919 29:-0.27701 30:-0.353993 31:-0.257186 32:-0.790645 33:-0.289696 34:-0.201454 35:-0.252847 36:-0.777826 
1024 1:-0.591352 2:-0.569015 3:-0.541208 4:-0.0384466 5:-0.73143 6:-0.514987 7:-0.579875 8:0.224503 9:-0.680768 10:-0.527426 11:-0.448118 12:0.0639713 13:-0.588934 14:-0.796773 15:-0.446014 16:0.0535348 17:-0.577418 18:-0.803573 19:-0.292839 20:-0.482743 21:-0.278434 22:-0.464623 23:-0.166488 24:-0.629576 25:-0.413614 26:0.131376 27:-0.571728 28:-0.348434 29:-0.2687 30:-0.349591 31:-0.264463 32:-0.792043 33:-0.284125 34:-0.196258 35:-0.260208 36:-0.778947 
1024 1:-0.619438 2:-0.585303 3:-0.583522 4:-0.0248318 5:-0.748907 6:-0.526584 7:-0.628013 8:0.235866 9:-0.684834 10:-0.52045 11:-0.478778 12:0.0766272 13:-0.615952 14:-0.817466 15:-0.481225 16:0.0643223 17:-0.601252 18:-0.822817 19:-0.328199 20:-0.496715 21:-0.296735 22:-0.409976 23:-0.227572 24:-0.618764 25:-0.421468 26:0.113312 27:-0.567759 28:-0.363285 29:-0.288091 30:-0.317583 31:-0.276214 32:-0.785401 33:-0.29805 34:-0.179099 35:-0.271352 36:-0.778315 
573.3533424253707 1:-0.786726 2:-0.285084 3:-0.574614 4:-0.355375 5:-0.365152 6:-0.355479 7:-0.599566 8:-0.134712 9:-0.323357 10:-0.397559 11:-0.502363 12:-0.185865 13:-0.267556 14:-0.685507 15:-0.500005 16:-0.19946 17:-0.250718 18:-0.692975 19:-0.630519 20:-0.360919 21:-0.403923 22:-0.646948 23:0.230904 24:-0.5382 25:-0.539267 26:-0.199148 27:-0.328032 28:-0.38735 29:-0.434904 30:-0.491857 31:-0.0554919 32:-0.766012 33:-0.440113 34:-0.349202 35:-0.041178 36:-0.760622 
1024 1:-0.77533 2:-0.278716 3:-0.545663 4:-0.349747 5:-0.360281 6:-0.338376 7:-0.582061 8:-0.0879081 9:-0.338148 10:-0.363356 11:-0.474061 12:-0.172971 13:-0.268198 14:-0.67103 15:-0.474183 16:-0.177214 17:-0.255095 18:-0.675486 19:-0.61284 20:-0.345939 21:-0.39608 22:-0.630895 23:0.205082 24:-0.53221 25:-0.52356 26:-0.210122 27:-0.321415 28:-0.389184 29:-0.412743 30:-0.529418 31:-0.0365937 32:-0.771134 33:-0.423399 34:-0.373618 35:-0.0238858 36:-0.761783 
-1024 1:-0.78754 2:-0.1928 3:-0.534527 4:-0.226285 5:-0.352754 6:-0.159446 7:-0.560181 8:0.015424 9:-0.325641 10:-0.22968 11:-0.455193 12:-0.133664 13:-0.223651 14:-0.600603 15:-0.450709 16:-0.151174 17:-0.2083 18:-0.612122 19:-0.639948 20:-0.349291 21:-0.398694 22:-0.579212 23:0.171668 24:-0.469724 25:-0.526178 26:-0.0792047 27:-0.38176 28:-0.30877 29:-0.421054 30:-0.436526 31:-0.0648984 32:-0.733949 33:-0.426185 34:-0.292564 35:-0.0581794 36:-0.729574 
1024 1:-0.780621 2:-0.252547 3:-0.561253 4:-0.348402 5:-0.346264 6:-0.320072 7:-0.593002 8:-0.0686317 9:-0.357745 10:-0.36899 11:-0.478778 12:-0.233431 13:-0.243816 14:-0.69342 15:-0.47653 16:-0.23523 17:-0.232828 18:-0.697337 19:-0.590445 20:-0.321552 21:-0.380394 22:-0.578447 23:0.146816 24:-0.489513 25:-0.47906 26:-0.125819 27:-0.388811 28:-0.373743 29:-0.362881 30:-0.489403 31:-0.0809207 32:-0.764306 33:-0.370474 34:-0.326393 35:-0.0804204 36:-0.754943 
1024 1:-0.761898 2:-0.213419 3:-0.534527 4:-0.302876 5:-0.35661 6:-0.2708 7:-0.564558 8:0.0152227 9:-0.397084 10:-0.32715 11:-0.441042 12:-0.209644 13:-0.254436 14:-0.677902 15:-0.438972 16:-0.209129 17:-0.246439 18:-0.682496 19:-0.579248 20:-0.317136 21:-0.359478 22:-0.540999 23:0.105031 24:-0.456284 25:-0.458117 26:-0.0732725 27:-0.415211 28:-0.345875 29:-0.34072 30:-0.464132 31:-0.0991658 32:-0.756569 33:-0.350975 34:-0.304242 35:-0.0915716 36:-0.7436 
1024 1:-0.78347 2:-0.476066 3:-0.507801 4:-0.435755 5:-0.341219 6:-0.415905 7:-0.542676 8:-0.0378628 9:-0.454976 10:-0.45675 11:-0.41274 12:-0.221288 13:-0.328614 14:-0.739644 15:-0.408455 16:-0.222869 17:-0.321169 18:-0.745024 19:-0.592213 20:-0.443616 21:-0.343792 22:-0.549688 23:0.0932705 24:-0.48174 25:-0.429321 26:-0.146548 27:-0.392277 28:-0.398357 29:-0.301939 30:-0.521491 31:-0.10119 32:-0.783842 33:-0.311977 34:-0.348814 35:-0.0991424 36:-0.769864 
1024 1:-0.783877 2:-0.228093 3:-0.56348 4:-0.242777 5:-0.36139 6:-0.196498 7:-0.586437 8:0.174328 9:-0.432961 10:-0.197866 11:-0.471703 12:-0.0773191 13:-0.28458 14:-0.616361 15:-0.469488 16:-0.0792548 17:-0.274711 18:-0.621759 19:-0.56923 20:-0.328135 21:-0.307193 22:-0.549471 23:0.068395 24:-0.497477 25:-0.431939 26:-0.0689271 27:-0.394646 28:-0.306831 29:-0.321329 30:-0.428985 31:-0.0908789 32:-0.725082 33:-0.331476 34:-0.270099 35:-0.0878068 36:-0.713912 
-1024 1:-0.0516551 2:0.153583 3:0.271702 4:-0.360605 5:-0.192636 6:-0.0764965 7:0.0918918 8:0.0572973 9:-0.164005 10:0.0666855 11:0.464611 12:-0.158902 13:-0.105661 14:-0.402854 15:0.455387 16:-0.166255 17:-0.0973124 18:-0.409815 19:0.198622 20:-0.075828 21:0.320257 22:-0.467003 23:-0.00555304 24:-0.283609 25:0.0549718 26:0.0503269 27:-0.296615 28:0.018675 29:0.290858 30:-0.239379 31:-0.0591466 32:-0.4918 33:0.281336 34:-0.130595 35:-0.0378024 36:-0.493468 
185.538984967053 1:0.151839 2:0.389914 3:0.456556 4:-0.496663 5:0.107761 6:0.162457 7:0.319459 8:-0.107048 9:0.128565 10:0.29476 11:0.627345 12:-0.169712 13:0.157646 14:-0.135257 15:0.61501 16:-0.157496 17:0.157753 18:-0.13433 19:0.387182 20:0.124361 21:0.542479 22:-0.528741 23:0.161809 24:-0.124895 25:0.277485 26:-0.0873799 27:-0.108481 28:0.152447 29:0.523545 30:-0.184427 31:0.0822917 32:-0.305085 33:0.501392 34:-0.0560602 35:0.0958076 36:-0.299504 
-1024 1:0.297947 2:0.524496 3:0.559003 4:-0.559609 5:0.285432 6:0.314015 7:0.437621 8:-0.184527 9:0.301786 10:0.440442 11:0.695741 12:-0.152138 13:0.3158 14:0.0495781 15:0.690128 16:-0.152232 17:0.321438 18:0.0472046 19:0.484997 20:0.263756 21:0.639212 22:-0.549639 23:0.281971 24:0.0231396 25:0.405756 26:-0.221913 27:0.0451465 28:0.220539 29:0.614956 30:-0.129048 31:0.196001 32:-0.146324 33:0.601669 34:-0.0181313 35:0.21426 36:-0.149466 
1024 1:0.526674 2:0.682194 3:0.703772 4:-0.609418 5:0.489015 6:0.512889 7:0.608297 8:-0.261884 9:0.499709 10:0.614721 11:0.804235 12:-0.128084 13:0.513874 14:0.29207 15:0.791069 16:-0.113802 17:0.512873 18:0.297498 19:0.655879 20:0.448491 21:0.759472 22:-0.584211 23:0.462836 24:0.234996 25:0.57853 26:-0.343229 27:0.245915 28:0.367194 29:0.775623 30:-0.0701757 31:0.362994 32:0.080771 33:0.763231 34:0.0157781 35:0.394957 36:0.0670838 
1024 1:0.618246 2:0.762279 3:0.763908 4:-0.639868 5:0.597841 6:0.610707 7:0.676133 8:-0.296628 9:0.602209 10:0.707844 11:0.853766 12:-0.113181 13:0.610687 14:0.416368 15:0.840368 16:-0.0834818 17:0.60124 18:0.429492 19:0.731303 20:0.548582 21:0.824832 22:-0.59523 23:0.542769 24:0.339364 25:0.680625 26:-0.42233 27:0.360925 28:0.4333 29:0.839333 30:-0.0105632 31:0.453705 32:0.232548 33:0.82451 34:0.053517 35:0.494909 36:0.207479 
-1024 1:0.73383 2:0.854701 3:0.839634 4:-0.653767 5:0.722605 6:0.752359 7:0.783359 8:-0.35933 9:0.718951 10:0.78504 11:0.908014 12:-0.095518 13:0.742817 14:0.58529 15:0.896708 16:-0.0867546 17:0.742659 18:0.58867 19:0.763712 20:0.682807 21:0.87712 22:-0.617477 23:0.674379 24:0.493616 25:0.772246 26:-0.50972 27:0.51117 28:0.532117 29:0.914126 30:-0.033275 31:0.609226 32:0.378657 33:0.885792 34:0.130405 35:0.615737 36:0.415059 
-1024 1:0.816449 2:0.942173 3:0.928726 4:-0.699184 5:0.848556 6:0.848362 7:0.866514 8:-0.43622 9:0.848573 10:0.856381 11:0.957545 12:-0.0979138 13:0.86847 14:0.726935 15:0.953049 16:-0.0931361 17:0.866275 18:0.725238 19:0.819101 20:0.806276 21:0.94248 22:-0.623264 23:0.794983 24:0.672141 25:0.879577 26:-0.618589 27:0.676711 28:0.617555 29:0.983379 30:0.0370093 31:0.742349 32:0.595355 33:0.980501 34:0.133146 35:0.755627 36:0.569544 
-1024 1:-0.765968 2:-0.459214 3:-0.570162 4:-0.285136 5:-0.633873 6:-0.628439 7:-0.680529 8:0.545201 9:-0.786117 10:-0.375389 11:-0.47642 12:0.00447159 13:-0.546042 14:-0.795528 15:-0.467141 16:0.00372753 17:-0.547727 18:-0.807744 19:-0.434866 20:-0.438588 21:-0.0379115 22:-0.628063 23:-0.0410959 24:-0.682102 25:-0.387436 26:0.160294 27:-0.570101 28:-0.310909 29:-0.193907 30:-0.431094 31:-0.188489 32:-0.772557 33:-0.192202 34:-0.316768 35:-0.173625 36:-0.778908 
-1024 1:-0.748467 2:-0.544203 3:-0.556799 4:-0.14301 5:-0.762872 6:-0.675165 7:-0.663024 8:0.692742 9:-0.891123 10:-0.479969 11:-0.485854 12:0.240186 13:-0.717896 14:-0.827685 15:-0.471836 16:0.240806 17:-0.716871 18:-0.837271 19:-0.400096 20:-0.488067 21:-0.0222251 22:-0.503636 23:-0.235881 24:-0.720468 25:-0.376965 26:0.272792 27:-0.669783 28:-0.362952 29:-0.174516 30:-0.333003 31:-0.303756 32:-0.797756 33:-0.169917 34:-0.237505 35:-0.287087 36:-0.806441 
-1024 1:-0.735442 2:-0.606339 3:-0.536754 4:-0.0782896 5:-0.827178 6:-0.72243 7:-0.652083 8:0.761963 9:-0.936278 10:-0.554842 11:-0.502363 12:0.374885 13:-0.800417 14:-0.847712 15:-0.490615 16:0.38202 17:-0.799499 18:-0.854693 19:-0.380059 20:-0.535369 21:-0.0196107 22:-0.418859 23:-0.357983 24:-0.750203 25:-0.369111 26:0.341381 27:-0.731404 28:-0.409136 29:-0.163436 30:-0.259033 31:-0.386281 32:-0.81768 33:-0.153204 34:-0.176877 35:-0.368534 36:-0.827105 
-1024 1:-0.685785 2:-0.736924 3:-0.440985 4:-0.0165254 5:-0.91477 6:-0.840236 7:-0.584249 8:0.778875 9:-0.975746 10:-0.715502 11:-0.438684 12:0.5822 13:-0.905483 14:-0.884476 15:-0.431929 16:0.596614 17:-0.904467 18:-0.887967 19:-0.305804 20:-0.636179 21:-0.00392422 22:-0.239887 23:-0.585579 24:-0.81514 25:-0.32199 26:0.491328 27:-0.851652 28:-0.52694 29:-0.110803 30:-0.0294119 31:-0.590973 32:-0.858181 33:-0.0974929 34:0.0188402 35:-0.570042 36:-0.867374 
1024 1:-0.638161 2:-0.842927 3:-0.3764 4:0.0963683 5:-0.972631 6:-0.907666 7:-0.496724 8:0.675924 9:-0.987749 10:-0.858006 11:-0.356138 12:0.745037 13:-0.966445 14:-0.925319 15:-0.354466 16:0.765747 17:-0.96611 18:-0.926941 19:-0.185584 20:-0.738697 21:0.0143766 22:-0.0518686 23:-0.767002 24:-0.86757 25:-0.227751 26:0.630588 27:-0.937369 28:-0.64724 29:-0.0166221 30:0.251733 31:-0.772281 32:-0.887891 33:0.00278416 34:0.269368 35:-0.7531 36:-0.895249 
-1024 1:-0.670724 2:-0.952688 3:-0.436531 4:0.174227 5:-0.999148 6:-0.966135 7:-0.492347 8:0.480292 9:-0.991981 10:-0.971602 11:-0.408023 12:0.790549 13:-0.993662 14:-0.974961 15:-0.40376 16:0.816113 17:-0.99365 18:-0.975681 19:-0.104258 20:-0.885489 21:-0.0483691 22:0.198238 23:-0.927245 24:-0.910341 25:-0.086391 26:0.61095 27:-0.981745 28:-0.83295 29:0.0387803 30:0.602431 31:-0.936613 32:-0.928311 33:0.0529241 34:0.604611 35:-0.926013 36:-0.930482 
-1024 1:-0.75213 2:-0.962535 3:-0.657019 4:0.166216 5:-0.998577 6:-0.943946 7:-0.603943 8:0.427696 9:-0.991385 10:-0.982582 11:-0.561326 12:0.711192 13:-0.991045 14:-0.986215 15:-0.55869 16:0.742554 17:-0.991419 18:-0.986181 19:-0.202674 20:-0.925999 21:-0.171244 22:0.307199 23:-0.963909 24:-0.879212 25:-0.146598 26:0.454281 27:-0.970597 28:-0.8978 29:-0.0554037 30:0.607791 31:-0.953426 32:-0.948594 33:-0.0501413 34:0.631556 35:-0.947816 36:-0.947073 
-1024 1:-0.800564 2:-0.494088 3:-0.67261 4:0.394929 5:-0.880531 6:-0.265248 7:-0.54924 8:-0.513426 9:-0.370004 10:-0.765338 11:-0.502363 12:-0.296814 13:-0.415544 14:-0.861261 15:-0.497657 16:-0.259101 17:-0.440794 18:-0.8683 19:-0.520906 20:-0.499274 21:-0.288892 22:-0.0589909 23:-0.503147 24:-0.387537 25:-0.363876 26:-0.392763 27:-0.355911 28:-0.609142 29:-0.27147 30:-0.30238 31:-0.296844 32:-0.789267 33:-0.267411 34:-0.19161 35:-0.295399 36:-0.798484 
1024 1:-0.790389 2:-0.53808 3:-0.690427 4:0.60993 5:-0.952278 6:-0.210431 7:-0.507665 8:-0.614825 9:-0.412143 10:-0.854024 11:-0.483495 12:-0.317059 13:-0.458898 14:-0.895299 15:-0.483573 16:-0.283486 17:-0.474954 18:-0.899324 19:-0.506762 20:-0.549372 21:-0.312422 22:0.157557 23:-0.690918 24:-0.342242 25:-0.327226 26:-0.442644 27:-0.408736 28:-0.711792 29:-0.232688 30:-0.295555 31:-0.372032 32:-0.834653 33:-0.228414 34:-0.186349 35:-0.368976 36:-0.841432 
-1024 1:-0.789168 2:-0.551618 3:-0.70379 4:0.673414 5:-0.969402 6:-0.195902 7:-0.494536 8:-0.640426 9:-0.429448 10:-0.87828 11:-0.483495 12:-0.319246 13:-0.474378 14:-0.905804 15:-0.483573 16:-0.286498 17:-0.48696 18:-0.908115 19:-0.502048 20:-0.568556 21:-0.312422 22:0.239445 23:-0.752074 24:-0.326762 25:-0.308901 26:-0.456558 27:-0.433735 28:-0.749101 29:-0.218838 30:-0.29261 31:-0.401557 32:-0.852448 33:-0.2117 34:-0.183681 35:-0.398448 36:-0.858137 
1024 1:-0.788354 2:-0.56239 3:-0.706017 4:0.680266 5:-0.97106 6:-0.193521 7:-0.479218 8:-0.646018 9:-0.448819 10:-0.891993 11:-0.474061 12:-0.333673 13:-0.484464 14:-0.916479 15:-0.481225 16:-0.294572 17:-0.494016 18:-0.915466 19:-0.497923 20:-0.599097 21:-0.309807 22:0.348898 23:-0.825761 24:-0.311311 25:-0.27749 26:-0.466534 27:-0.475625 28:-0.798767 29:-0.202217 30:-0.289745 31:-0.444355 32:-0.879155 33:-0.189416 34:-0.180144 35:-0.44166 36:-0.882972 
1024 1:-0.786726 2:-0.538625 3:-0.661474 4:0.471894 5:-0.904256 6:-0.238772 7:-0.492347 8:-0.540278 9:-0.446475 10:-0.83374 11:-0.45991 12:-0.340726 13:-0.463028 14:-0.904364 15:-0.467141 16:-0.295623 17:-0.472811 18:-0.900635 19:-0.499101 20:-0.623703 21:-0.304578 22:0.387371 23:-0.851943 24:-0.317403 25:-0.259165 26:-0.434925 27:-0.522115 28:-0.822825 29:-0.180056 30:-0.328923 31:-0.468056 32:-0.910622 33:-0.167132 34:-0.199503 35:-0.470083 36:-0.908721 
-1024 1:-0.784284 2:-0.581717 3:-0.674837 4:0.715585 5:-0.98076 6:-0.238143 7:-0.463901 8:-0.697134 9:-0.457694 10:-0.920546 11:-0.466986 12:-0.389676 13:-0.481519 14:-0.935973 15:-0.469488 16:-0.345334 17:-0.493386 18:-0.933662 19:-0.471403 20:-0.688471 21:-0.247061 22:0.560238 23:-0.940977 24:-0.329191 25:-0.151834 26:-0.532525 27:-0.576456 28:-0.933678 29:-0.105263 30:-0.331007 31:-0.543154 32:-0.952959 33:-0.0974929 34:-0.191238 35:-0.545851 36:-0.9469 
-1024 1:-0.777365 2:-0.55427 3:-0.614703 4:0.623575 5:-0.949806 6:-0.238789 7:-0.435455 8:-0.681904 9:-0.444847 10:-0.89933 11:-0.426891 12:-0.428774 13:-0.455933 14:-0.930941 15:-0.429582 16:-0.390884 17:-0.46448 18:-0.929058 19:-0.463742 20:-0.711999 21:-0.189544 22:0.586303 23:-0.960416 24:-0.394496 25:-0.12042 26:-0.50727 27:-0.614135 28:-0.952256 29:-0.0720244 30:-0.345824 31:-0.577563 32:-0.977002 33:-0.0696401 34:-0.20646 35:-0.577896 36:-0.970341 
1024 1:-0.879525 2:-0.249423 3:-0.741652 4:-0.414147 5:-0.362741 6:-0.460431 7:-0.800877 8:-0.0446764 9:-0.284597 10:-0.283353 11:-0.688682 12:-0.254092 13:-0.22416 14:-0.751876 15:-0.692492 16:-0.244772 17:-0.221171 18:-0.757966 19:-0.705948 20:-0.499935 21:-0.385622 22:-0.681622 23:0.0968732 24:-0.738033 25:-0.573299 26:-0.0785218 27:-0.462229 28:-0.434357 29:-0.470916 30:-0.299942 31:-0.247082 32:-0.787556 33:-0.484682 34:-0.16517 35:-0.237652 36:-0.778962 
852.9008772959254 1:-0.845336 2:-0.177694 3:-0.654792 4:-0.611601 5:-0.118366 6:-0.419364 7:-0.743987 8:-0.0569882 9:-0.202274 10:-0.181496 11:-0.599059 12:-0.380688 13:-0.0945937 14:-0.71584 15:-0.603289 16:-0.371806 17:-0.0965006 18:-0.724696 19:-0.622269 20:-0.365144 21:-0.260133 22:-0.852468 23:0.449553 24:-0.61207 25:-0.50262 26:-0.0995725 27:-0.317998 28:-0.23698 29:-0.368421 30:-0.452478 31:-0.029621 32:-0.707075 33:-0.381616 34:-0.30965 35:-0.0140906 36:-0.701102 
-1024 1:-0.900282 2:0.0997101 3:-0.770603 4:-0.439791 5:-0.0028062 6:-0.0727766 7:-0.824947 8:0.0184786 9:0.0571931 10:0.261959 11:-0.719343 12:-0.30069 13:0.174903 14:-0.500821 15:-0.718313 16:-0.317437 17:0.172797 18:-0.533684 19:-0.76959 20:-0.0514868 21:-0.448368 22:-0.831278 23:0.738976 24:-0.394951 25:-0.573299 26:-0.280512 27:0.0601913 28:0.0253879 29:-0.490307 30:-0.533152 31:0.353661 32:-0.529767 33:-0.501395 34:-0.403734 35:0.392499 36:-0.53092 
-1024 1:-0.898654 2:0.0562051 3:-0.77283 4:-0.489937 5:0.014557 6:-0.139639 7:-0.827135 8:-0.0588354 9:0.0689283 10:0.143156 11:-0.716985 12:-0.366224 13:0.182899 14:-0.55444 15:-0.715966 16:-0.38152 17:0.181826 18:-0.583498 19:-0.769001 20:-0.117427 21:-0.453597 22:-0.817989 23:0.676974 24:-0.435365 25:-0.575917 26:-0.314968 27:0.0400706 28:-0.0565275 29:-0.493077 30:-0.538697 31:0.311634 32:-0.565296 33:-0.50418 34:-0.404772 35:0.337698 36:-0.570641 
1024 1:-0.913307 2:0.174735 3:-0.812919 4:-0.540523 5:0.17033 6:-0.0715347 7:-0.853394 8:-0.0499734 9:0.09495 10:0.182982 11:-0.754721 12:-0.3365 13:0.237394 14:-0.507883 15:-0.744135 16:-0.386247 17:0.234163 18:-0.566649 19:-0.806126 20:-0.0505688 21:-0.511114 22:-0.828243 23:0.784693 24:-0.394943 25:-0.607331 26:-0.404159 27:0.163722 28:-0.045357 29:-0.548476 30:-0.489234 31:0.372234 32:-0.502747 33:-0.557103 34:-0.359616 35:0.390816 36:-0.514279 
1024 1:-0.914528 2:0.167648 3:-0.815147 4:-0.56651 5:0.213757 6:-0.0719486 7:-0.85777 8:-0.0693504 9:0.133348 10:0.196496 11:-0.757077 12:-0.364803 13:0.27852 14:-0.505787 15:-0.746482 16:-0.417588 17:0.276896 18:-0.565952 19:-0.807304 20:-0.059808 21:-0.513728 22:-0.856564 23:0.847459 24:-0.396433 25:-0.612567 26:-0.421118 27:0.192905 28:-0.037388 29:-0.554017 30:-0.510424 31:0.399249 32:-0.503746 33:-0.562674 34:-0.381818 35:0.420427 36:-0.516474 
-1024 1:-0.894584 2:-0.035883 3:-0.75724 4:-0.930707 5:0.161433 6:-0.619911 7:-0.811818 8:-0.585996 9:0.135522 10:-0.518126 11:-0.700475 12:-0.821545 13:0.274536 14:-0.831113 15:-0.697186 16:-0.854142 17:0.281027 18:-0.854822 19:-0.768412 20:-0.216506 21:-0.466669 22:-1 23:0.798795 24:-0.689317 25:-0.575917 26:-0.551105 27:0.00881205 28:-0.424787 29:-0.501387 30:-0.718259 31:0.24711 32:-0.741333 33:-0.509752 34:-0.579187 35:0.275735 36:-0.74834 
1024 1:-0.697996 2:-0.218369 3:-0.432077 4:-0.557667 5:-0.158334 6:-0.333919 7:-0.533923 8:0.0921917 9:-0.316898 10:-0.125649 11:-0.367931 12:-0.166587 13:-0.228144 14:-0.611795 15:-0.366204 16:-0.169923 17:-0.225302 18:-0.623421 19:-0.483779 20:-0.3678 21:-0.173858 22:-0.706621 23:0.23211 24:-0.54427 25:-0.408379 26:-0.0141845 27:-0.366791 28:-0.190703 29:-0.2687 30:-0.347377 31:-0.093848 32:-0.6644 33:-0.278554 34:-0.234786 35:-0.0716002 36:-0.667366 
1024 1:-0.697589 2:-0.207468 3:-0.405351 4:-0.327904 5:-0.248033 6:-0.146103 7:-0.483595 8:0.0637874 9:-0.274166 10:-0.097196 11:-0.275949 12:-0.37016 13:-0.13454 14:-0.656379 15:-0.267612 16:-0.38114 17:-0.132511 18:-0.670608 19:-0.533281 20:-0.362866 21:-0.179087 22:-0.719153 23:0.264136 24:-0.532812 25:-0.41885 26:0.0307626 27:-0.384887 28:-0.160095 29:-0.27147 30:-0.398274 31:-0.0621604 32:-0.674584 33:-0.278554 34:-0.253122 35:-0.0550987 36:-0.668384 
-1024 1:-0.710207 2:-0.214598 3:-0.412032 4:-0.255801 5:-0.283767 6:-0.0972509 7:-0.485783 8:0.0708238 9:-0.28927 10:-0.11025 11:-0.273591 12:-0.391119 13:-0.144851 14:-0.677421 15:-0.262917 16:-0.39904 17:-0.143501 18:-0.689439 19:-0.546836 20:-0.400887 21:-0.176472 22:-0.711624 23:0.228189 24:-0.558715 25:-0.424086 26:0.0392391 27:-0.400018 28:-0.173725 29:-0.27978 30:-0.40864 31:-0.0707029 32:-0.689255 33:-0.284125 34:-0.263588 35:-0.0633822 36:-0.68286 
935.4081088131559 1:-0.712649 2:-0.138305 3:-0.416486 4:-0.191376 5:-0.282764 6:-0.00400912 7:-0.483595 8:0.139721 9:-0.289334 10:-0.0270585 11:-0.280666 12:-0.380755 13:-0.11932 14:-0.652325 15:-0.274654 16:-0.392942 17:-0.115923 18:-0.666752 19:-0.540353 20:-0.366044 21:-0.171244 22:-0.684502 23:0.218317 24:-0.518814 25:-0.410996 26:0.0389177 27:-0.391442 28:-0.159703 29:-0.27701 30:-0.432357 31:-0.0373806 32:-0.679722 33:-0.272983 34:-0.283137 35:-0.0422514 36:-0.679351 
1024 1:-0.724046 2:-0.180178 3:-0.42985 4:-0.259704 5:-0.276179 6:-0.0926747 7:-0.498912 8:0.159113 9:-0.347732 10:-0.0899094 11:-0.301893 12:-0.407785 13:-0.134013 14:-0.685154 15:-0.295781 16:-0.415314 17:-0.134086 18:-0.698808 19:-0.53446 20:-0.366629 21:-0.158172 22:-0.699432 23:0.216613 24:-0.542993 25:-0.403143 26:0.0117138 27:-0.412553 28:-0.230191 29:-0.2687 30:-0.460421 31:-0.0552891 32:-0.708973 33:-0.270197 34:-0.312449 35:-0.0533043 36:-0.706934 
1024 1:-0.754979 2:-0.201394 3:-0.467712 4:-0.286879 5:-0.261858 6:-0.112987 7:-0.527358 8:0.253971 9:-0.400031 10:-0.0529497 11:-0.344346 12:-0.326731 13:-0.170574 14:-0.669267 15:-0.342729 16:-0.329372 17:-0.167316 18:-0.678919 19:-0.559212 20:-0.312038 21:-0.189544 22:-0.641967 23:0.2085 24:-0.45765 25:-0.400525 26:0.0198355 27:-0.387439 28:-0.178475 29:-0.27147 30:-0.435553 31:-0.0353444 32:-0.679217 33:-0.281339 34:-0.288018 35:-0.025205 36:-0.672209 
-1024 1:-0.544543 2:-0.403115 3:-0.436531 4:-0.180633 5:-0.542482 6:-0.37874 7:-0.542676 8:0.261784 9:-0.540205 10:-0.266307 11:-0.339629 12:-0.0937472 13:-0.436384 14:-0.7405 15:-0.338034 16:-0.101784 17:-0.426152 18:-0.747383 19:-0.243337 20:-0.370843 21:-0.111115 22:-0.499482 23:-0.0353818 24:-0.47349 25:-0.308901 26:0.058944 27:-0.439729 28:-0.212652 29:-0.171746 30:-0.297302 31:-0.176268 32:-0.679974 33:-0.192202 34:-0.178573 35:-0.152641 36:-0.674389 
-1024 1:-0.525819 2:-0.425973 3:-0.436531 4:-0.0976833 5:-0.590371 6:-0.354067 7:-0.531735 8:0.238827 9:-0.557168 10:-0.319265 11:-0.323119 12:-0.0748192 13:-0.469335 14:-0.755827 15:-0.321602 16:-0.0954546 17:-0.454037 18:-0.765213 19:-0.209746 20:-0.370019 21:-0.092814 22:-0.498381 23:-0.0235936 24:-0.450823 25:-0.293197 26:0.0663895 27:-0.448998 28:-0.218769 29:-0.141275 30:-0.315 31:-0.181817 32:-0.691042 33:-0.169917 34:-0.177111 35:-0.162363 36:-0.677592 
-1024 1:-0.527041 2:-0.429887 3:-0.438758 4:-0.0796288 5:-0.604078 6:-0.354487 7:-0.531735 8:0.256264 9:-0.566532 10:-0.315477 11:-0.316044 12:-0.0779962 13:-0.47562 14:-0.762238 15:-0.312213 16:-0.0933374 17:-0.46321 18:-0.770608 19:-0.207978 20:-0.368426 21:-0.0875852 22:-0.48338 23:-0.0348505 24:-0.436562 25:-0.282725 26:0.0945375 27:-0.462804 28:-0.206903 29:-0.132964 30:-0.310203 31:-0.185151 32:-0.689518 33:-0.158775 34:-0.166456 35:-0.170212 36:-0.674774 
-1024 1:-0.532739 2:-0.438757 3:-0.440985 4:-0.110749 5:-0.597103 6:-0.380362 7:-0.542676 8:0.275303 9:-0.577582 10:-0.311995 11:-0.330195 12:-0.0760766 13:-0.480934 14:-0.767327 15:-0.32395 16:-0.0876268 17:-0.472473 18:-0.776642 19:-0.211514 20:-0.377193 21:-0.103272 22:-0.478934 23:-0.050207 24:-0.453128 25:-0.282725 26:0.149347 27:-0.497287 28:-0.198052 29:-0.132964 30:-0.348335 31:-0.181423 32:-0.709967 33:-0.158775 34:-0.193795 35:-0.168094 36:-0.691697 
-1024 1:-0.54495 2:-0.453333 3:-0.472166 4:-0.120196 5:-0.593523 6:-0.384745 7:-0.560181 8:0.246848 9:-0.571846 10:-0.332241 11:-0.344346 12:-0.0900048 13:-0.489083 14:-0.783649 15:-0.340382 16:-0.0972513 17:-0.480989 18:-0.791019 19:-0.207978 20:-0.384742 21:-0.116341 22:-0.455037 23:-0.0832819 24:-0.457004 25:-0.290579 26:0.105645 27:-0.48178 28:-0.225593 29:-0.130194 30:-0.310573 31:-0.212417 32:-0.710547 33:-0.164346 34:-0.177871 35:-0.187459 36:-0.696426 
-1024 1:-0.548614 2:-0.467606 3:-0.483302 4:-0.114761 5:-0.602144 6:-0.391516 7:-0.575498 8:0.265435 9:-0.592716 10:-0.344679 11:-0.356138 12:-0.11141 13:-0.490936 14:-0.798254 15:-0.347424 16:-0.128287 17:-0.481042 18:-0.808528 19:-0.166136 20:-0.376873 21:-0.092814 22:-0.475169 23:-0.0521232 24:-0.446052 25:-0.267019 26:0.123636 27:-0.495656 28:-0.227755 29:-0.105263 30:-0.331426 31:-0.204949 32:-0.714015 33:-0.125348 34:-0.202857 35:-0.184186 36:-0.705258 
1024 1:-0.561639 2:-0.488317 3:-0.496665 4:-0.113952 5:-0.613638 6:-0.408374 7:-0.590814 8:0.255667 9:-0.603875 10:-0.372084 11:-0.363214 12:-0.154058 13:-0.488594 14:-0.819757 15:-0.359161 16:-0.164019 17:-0.480011 18:-0.82769 19:-0.142563 20:-0.381143 21:-0.0614412 22:-0.43782 23:-0.0865486 24:-0.416186 25:-0.243458 26:0.146742 27:-0.518677 28:-0.240526 29:-0.0637141 30:-0.369735 31:-0.20671 32:-0.732471 33:-0.0807796 34:-0.25104 35:-0.183166 36:-0.729614 
-1024 1:-0.781028 2:-0.217539 3:-0.501119 4:-0.453478 5:-0.160233 6:-0.215046 7:-0.586437 8:-0.0332845 9:-0.2014 10:-0.12383 11:-0.400948 12:-0.408931 13:-0.103331 14:-0.684385 15:-0.401413 16:-0.412936 17:-0.093868 18:-0.690833 19:-0.581605 20:-0.322529 21:-0.213074 22:-0.770004 23:0.370552 24:-0.522587 25:-0.458117 26:-0.0597944 27:-0.309625 28:-0.165516 29:-0.313019 30:-0.447053 31:-0.0161136 32:-0.681443 33:-0.331476 34:-0.294917 35:0.00424214 36:-0.666476 
-1024 1:-0.766375 2:-0.129659 3:-0.487756 4:-0.401287 5:-0.161861 6:-0.142678 7:-0.57331 8:0.0253137 9:-0.20042 10:-0.0473323 11:-0.391514 12:-0.38414 13:-0.0831477 14:-0.650265 15:-0.389676 16:-0.38413 17:-0.0787891 18:-0.65747 19:-0.56864 20:-0.326167 21:-0.197388 22:-0.737043 23:0.3193 24:-0.511232 25:-0.447646 26:0.0192998 27:-0.355008 28:-0.12767 29:-0.307479 30:-0.386588 31:-0.0556582 32:-0.669149 33:-0.32312 34:-0.236979 35:-0.0406987 36:-0.654763 
-1024 1:-0.759863 2:-0.116832 3:-0.452121 4:-0.30921 5:-0.183307 6:-0.035084 7:-0.527358 8:0.0526183 9:-0.198249 10:-0.00636328 11:-0.341987 12:-0.405591 13:-0.0542615 14:-0.63134 15:-0.342729 16:-0.411631 17:-0.0482218 18:-0.64168 19:-0.576302 20:-0.339516 21:-0.205231 22:-0.689328 23:0.260133 24:-0.492706 25:-0.434557 26:0.0382482 27:-0.367677 28:-0.121763 29:-0.299169 30:-0.423352 31:-0.0324725 32:-0.674741 33:-0.303621 34:-0.270918 35:-0.0271141 36:-0.665715 
1.206568988415352 1:-0.762305 2:-0.109664 3:-0.465484 4:-0.358108 5:-0.153493 6:-0.0671286 7:-0.547052 8:-0.00554142 9:-0.190369 10:-0.0702567 11:-0.360855 12:-0.478341 13:-0.0317363 14:-0.668032 15:-0.368551 16:-0.459381 17:-0.0309808 18:-0.667129 19:-0.573355 20:-0.348519 21:-0.197388 22:-0.709527 23:0.27975 24:-0.504758 25:-0.437175 26:0.0310572 27:-0.38817 28:-0.165563 29:-0.301939 30:-0.409758 31:-0.067896 32:-0.692314 33:-0.311977 34:-0.264771 35:-0.0558565 36:-0.683651 
-1024 1:-0.750909 2:-0.155629 3:-0.449894 4:-0.299679 5:-0.222151 6:-0.0747839 7:-0.514229 8:0.030388 9:-0.248548 10:-0.103091 11:-0.320761 12:-0.477568 13:-0.0718813 14:-0.687506 15:-0.326297 16:-0.459866 17:-0.0746657 18:-0.68947 19:-0.558033 20:-0.294919 21:-0.189544 22:-0.668948 23:0.241273 24:-0.46993 25:-0.41885 26:0.0595333 27:-0.386698 28:-0.123744 29:-0.296398 30:-0.396648 31:-0.0348454 32:-0.658101 33:-0.292479 34:-0.272511 35:-0.022411 36:-0.661257 
-1024 1:-0.768003 2:-0.265843 3:-0.463257 4:-0.408465 5:-0.19781 6:-0.195205 7:-0.531735 8:-0.0133972 9:-0.275444 10:-0.19282 11:-0.344346 12:-0.49032 13:-0.0992317 14:-0.720165 15:-0.349772 16:-0.473665 17:-0.0981317 18:-0.720221 19:-0.580427 20:-0.408026 21:-0.189544 22:-0.67511 23:0.22253 24:-0.503584 25:-0.400525 26:-0.0688066 27:-0.360887 28:-0.252322 29:-0.26593 30:-0.501137 31:-0.0331215 32:-0.718289 33:-0.270197 34:-0.365382 35:-0.0144306 36:-0.716116 
-1024 1:-0.772888 2:-0.154018 3:-0.489983 4:-0.305603 5:-0.210518 6:-0.0704856 7:-0.555805 8:0.210035 9:-0.335277 10:-0.00571448 11:-0.396231 12:-0.313421 13:-0.126892 14:-0.636577 15:-0.40376 16:-0.292813 17:-0.126264 18:-0.634886 19:-0.583963 20:-0.254298 21:-0.236604 22:-0.603441 23:0.198734 24:-0.412743 25:-0.416232 26:0.0102341 27:-0.344998 28:-0.122809 29:-0.296398 30:-0.448035 31:0.0093842 32:-0.660004 33:-0.303621 34:-0.295743 35:0.019445 36:-0.650295 
561.8768810564407 1:0.291842 2:0.0609342 3:0.469919 4:-0.264602 5:-0.304256 6:-0.117869 7:0.435433 8:-0.0249328 9:-0.274076 10:-0.161112 11:0.601401 12:0.142399 13:-0.242272 14:-0.320547 15:0.61501 16:0.133408 17:-0.240358 18:-0.33498 19:0.178588 20:-0.0496786 21:0.139866 22:-0.17596 23:-0.221947 24:-0.0740209 25:0.104711 26:-0.221197 27:-0.209781 28:-0.173263 29:0.252077 30:-0.173691 31:-0.0732624 32:-0.462191 33:0.295264 34:-0.143326 35:-0.0416615 36:-0.504934 
-1024 1:0.492894 2:0.349058 3:0.672589 4:-0.468552 5:0.0536092 6:0.1369 7:0.645496 8:-0.24503 9:0.0808896 10:0.0998522 11:0.754704 12:0.0668953 13:0.0798813 14:-0.0106361 15:0.758203 16:0.0470638 17:0.0854011 18:-0.0306756 19:0.370094 20:0.212267 21:0.411761 22:-0.30585 23:0.0299624 24:0.112725 25:0.374342 26:-0.379727 27:0.0366189 28:0.0100167 29:0.515235 30:-0.111704 31:0.129434 32:-0.204124 33:0.545961 34:-0.074535 35:0.162686 36:-0.25015 
1024 1:0.608071 2:0.505179 3:0.757227 4:-0.559386 5:0.264663 6:0.298739 7:0.73084 8:-0.331831 9:0.283474 10:0.26812 11:0.81131 12:0.0321345 13:0.275743 14:0.182634 15:0.816894 16:0.0305732 17:0.273 18:0.170067 19:0.46732 20:0.375857 21:0.545093 22:-0.379147 23:0.210731 24:0.267028 25:0.507851 26:-0.470505 27:0.20826 28:0.145974 29:0.626037 30:-0.0216776 31:0.260845 32:0.0100506 33:0.665737 34:-0.0188621 35:0.304469 36:-0.059537 
328.1974891197688 1:0.711853 2:0.685526 3:0.859681 4:-0.640073 5:0.499221 6:0.492764 7:0.807429 8:-0.418259 9:0.525874 10:0.476292 11:0.8632 12:0.00979882 13:0.510371 14:0.43086 15:0.875582 16:0.00646354 17:0.505476 18:0.415534 19:0.611685 20:0.583296 21:0.699343 22:-0.446105 23:0.439054 24:0.50456 25:0.672771 26:-0.59318 27:0.457253 28:0.339232 29:0.795011 30:0.0350858 31:0.46256 32:0.282824 33:0.807797 34:0.0727299 35:0.497858 36:0.229037 
-1024 1:0.7379 2:0.773305 3:0.881953 4:-0.665632 5:0.616094 6:0.604447 7:0.849006 8:-0.456833 9:0.632791 10:0.565112 11:0.891504 12:-0.000505937 13:0.618699 14:0.545728 15:0.887319 16:0.021739 17:0.607841 18:0.550605 19:0.665896 20:0.691775 21:0.777773 22:-0.472909 23:0.553083 24:0.635206 25:0.759157 26:-0.647929 27:0.582325 28:0.440854 29:0.853184 30:0.0857246 31:0.578541 32:0.460682 33:0.87465 34:0.10642 35:0.615774 36:0.388855 
-1024 1:0.790808 2:0.877155 3:0.928726 4:-0.713136 5:0.760767 6:0.718789 7:0.89496 8:-0.495795 9:0.763845 10:0.68132 11:0.919806 12:-0.0120755 13:0.758702 14:0.695705 15:0.917838 16:0.00471906 17:0.749783 18:0.698808 19:0.730124 20:0.819479 21:0.850976 22:-0.519407 23:0.719407 24:0.797796 25:0.861252 26:-0.712996 27:0.725107 28:0.55052 29:0.927977 30:0.12512 31:0.710475 32:0.650188 33:0.944289 34:0.146351 35:0.753817 36:0.580871 
1024 1:0.815635 2:0.965169 3:0.957681 4:-0.750814 5:0.888172 6:0.821994 7:0.929974 8:-0.533062 9:0.874244 10:0.772048 11:0.938677 12:-0.0145159 13:0.871737 14:0.824579 15:0.938965 16:-0.00450286 17:0.863175 18:0.82181 19:0.767247 20:0.935969 21:0.939866 22:-0.569511 23:0.870381 24:0.923414 25:0.937169 26:-0.823566 27:0.899324 28:0.63115 29:0.972299 30:0.125925 31:0.868824 32:0.829717 33:0.986072 34:0.17209 35:0.900462 36:0.769063 
1024 1:-0.781028 2:-0.566274 3:-0.63252 4:0.0475311 5:-0.831904 6:-0.597795 7:-0.645518 8:0.340902 9:-0.802631 10:-0.622462 11:-0.594342 12:0.314544 13:-0.697178 14:-0.769279 15:-0.591552 16:0.348822 17:-0.710544 18:-0.776859 19:-0.640537 20:-0.590188 21:-0.471898 22:-0.246536 23:-0.342705 24:-0.521684 25:-0.497385 26:-0.0815013 27:-0.493746 28:-0.478075 29:-0.426594 30:-0.434152 31:-0.157803 32:-0.796928 33:-0.403901 34:-0.386166 35:-0.119052 36:-0.824495 
330.63342444926 1:-0.7794 2:-0.622327 3:-0.630293 4:0.0854077 5:-0.881337 6:-0.664056 7:-0.663024 8:0.414442 9:-0.865878 10:-0.679396 11:-0.625003 12:0.419162 13:-0.779947 14:-0.802226 15:-0.624416 16:0.450405 17:-0.78813 18:-0.807878 19:-0.625805 20:-0.620987 21:-0.456211 22:-0.201493 23:-0.423063 24:-0.555471 25:-0.492149 26:0.0391789 27:-0.58987 28:-0.488644 29:-0.412743 30:-0.376503 31:-0.232909 32:-0.810913 33:-0.389973 34:-0.32811 35:-0.199004 36:-0.836243 
-1024 1:-0.780214 2:-0.657504 3:-0.628066 4:0.112692 5:-0.907749 6:-0.699191 7:-0.671776 8:0.451831 9:-0.895664 10:-0.71137 11:-0.646229 12:0.484889 13:-0.825097 14:-0.820505 15:-0.645543 16:0.514906 17:-0.830605 18:-0.824629 19:-0.614607 20:-0.645255 21:-0.448368 22:-0.16175 23:-0.486673 24:-0.58144 25:-0.484296 26:0.114329 27:-0.651807 28:-0.507754 29:-0.404433 30:-0.321165 31:-0.297923 32:-0.822566 33:-0.378831 34:-0.276896 35:-0.265194 36:-0.846058 
1024 1:-0.761491 2:-0.740973 3:-0.596886 4:0.133654 5:-0.947335 6:-0.788061 7:-0.638954 8:0.507619 9:-0.94045 10:-0.783565 11:-0.622644 12:0.595019 13:-0.897781 14:-0.862348 15:-0.622069 16:0.631034 17:-0.901819 18:-0.863257 19:-0.58632 20:-0.707322 21:-0.422224 22:-0.0545273 23:-0.643289 24:-0.65636 25:-0.468589 26:0.255076 27:-0.772807 28:-0.580275 29:-0.379502 30:-0.181465 31:-0.455948 32:-0.855531 33:-0.356546 34:-0.13452 35:-0.431893 36:-0.872643 
1024 1:-0.745211 2:-0.825267 3:-0.567934 4:0.142774 5:-0.974761 6:-0.867818 7:-0.608319 8:0.552798 9:-0.97564 10:-0.863928 11:-0.594342 12:0.695113 13:-0.953525 14:-0.909868 15:-0.591552 16:0.732072 17:-0.956091 18:-0.910515 19:-0.539175 20:-0.788569 21:-0.398694 22:0.076102 23:-0.8003 24:-0.752309 25:-0.426703 26:0.355094 27:-0.867573 28:-0.687324 29:-0.34072 30:0.047834 31:-0.652057 32:-0.888845 33:-0.314763 34:0.0853875 35:-0.634824 36:-0.900394 
1024 1:-0.726488 2:-0.95474 3:-0.543436 4:0.144482 5:-0.998437 6:-0.967139 7:-0.571122 8:0.52218 9:-0.997445 10:-0.974564 11:-0.504722 12:0.823153 13:-0.997945 14:-0.975771 15:-0.507047 16:0.857608 17:-0.998297 18:-0.974912 19:-0.460206 20:-0.943038 21:-0.273205 22:0.26558 23:-0.959309 24:-0.90808 25:-0.324608 26:0.428872 27:-0.957886 28:-0.863909 29:-0.282551 30:0.492276 31:-0.90991 32:-0.93792 33:-0.264626 34:0.517594 35:-0.903355 36:-0.94054 
1024 1:-0.761491 2:-0.981013 3:-0.621384 4:0.102057 5:-0.997582 6:-0.97611 7:-0.660836 8:0.482269 9:-0.997584 10:-0.983325 11:-0.591984 12:0.752522 13:-0.996424 14:-0.988096 15:-0.591552 16:0.793353 17:-0.997329 18:-0.987229 19:-0.452545 20:-1 21:-0.228761 22:0.284828 23:-0.982552 24:-0.973649 25:-0.29843 26:0.473879 27:-0.981855 28:-0.90765 29:-0.238229 30:0.629343 31:-0.97058 32:-0.962598 33:-0.228414 34:0.643549 35:-0.963974 36:-0.962335 
-1024 1:-0.828241 2:-0.594412 3:-0.717153 4:0.386833 5:-0.940375 6:-0.45607 7:-0.673965 8:-0.0960154 9:-0.629949 10:-0.738787 11:-0.67689 12:0.182301 13:-0.640892 14:-0.802364 15:-0.685449 16:0.247724 17:-0.668133 18:-0.803418 19:-0.677073 20:-0.623164 21:-0.571243 22:0.121552 23:-0.654313 24:-0.309439 25:-0.505238 26:-0.535927 27:-0.261891 28:-0.677725 29:-0.465376 30:-0.466643 31:-0.178511 32:-0.837968 33:-0.448469 34:-0.3959 35:-0.151318 36:-0.859254 
1024 1:-0.822543 2:-0.632303 3:-0.728289 4:0.46816 5:-0.96955 6:-0.471125 7:-0.658647 8:-0.150057 9:-0.652892 10:-0.802519 11:-0.669814 12:0.177391 13:-0.67432 14:-0.836197 15:-0.678407 16:0.250572 17:-0.703033 18:-0.835707 19:-0.670591 20:-0.660879 21:-0.5817 22:0.299794 23:-0.79646 24:-0.254154 25:-0.481678 26:-0.601857 27:-0.294356 28:-0.766266 29:-0.457065 30:-0.440776 31:-0.259182 32:-0.872423 33:-0.440113 34:-0.364 35:-0.237214 36:-0.889165 
-1024 1:-0.823357 2:-0.649115 3:-0.739425 4:0.502122 5:-0.979889 6:-0.477267 7:-0.658647 8:-0.166976 9:-0.663696 10:-0.82561 11:-0.672173 12:0.179437 13:-0.689186 14:-0.849203 15:-0.680754 16:0.251907 17:-0.71678 18:-0.848751 19:-0.668233 20:-0.677006 21:-0.584315 22:0.369442 23:-0.843209 24:-0.232831 25:-0.473824 26:-0.621857 27:-0.315736 28:-0.80226 29:-0.454295 30:-0.41767 31:-0.300726 32:-0.885605 33:-0.440113 34:-0.338758 35:-0.280667 36:-0.900621 
-776.6523491542857 1:-0.829055 2:-0.67273 3:-0.766149 4:0.53691 5:-0.990656 6:-0.487598 7:-0.6674 8:-0.184664 9:-0.67975 10:-0.854928 11:-0.683965 12:0.178135 13:-0.707306 14:-0.868026 15:-0.690144 16:0.246688 17:-0.732735 18:-0.868155 19:-0.668233 20:-0.704102 21:-0.586929 22:0.456399 23:-0.895359 24:-0.210451 25:-0.463353 26:-0.649221 27:-0.349629 28:-0.853539 29:-0.448755 30:-0.399714 31:-0.352626 32:-0.907483 33:-0.434542 34:-0.318398 35:-0.334896 36:-0.920034 
1024 1:-0.831497 2:-0.667278 3:-0.752786 4:0.457381 5:-0.973535 6:-0.489334 7:-0.665212 8:-0.164654 9:-0.689974 10:-0.8524 11:-0.679248 12:0.162488 13:-0.707738 14:-0.876215 15:-0.683102 16:0.225456 17:-0.732052 18:-0.878098 19:-0.661751 20:-0.726868 21:-0.584315 22:0.51086 23:-0.923402 24:-0.197708 25:-0.445028 26:-0.637946 27:-0.405608 28:-0.89114 29:-0.423824 30:-0.377904 31:-0.413329 32:-0.929764 33:-0.415043 34:-0.295721 35:-0.395101 36:-0.93969 
1024 1:-0.824578 2:-0.688773 3:-0.750558 4:0.5313 5:-0.989782 6:-0.50051 7:-0.625825 8:-0.22502 9:-0.699776 10:-0.893064 11:-0.641512 12:0.125874 13:-0.717201 14:-0.898574 15:-0.645543 16:0.19867 17:-0.74451 18:-0.899107 19:-0.647019 20:-0.762183 21:-0.568628 22:0.588232 23:-0.959716 24:-0.20187 25:-0.379583 26:-0.661735 27:-0.480577 28:-0.959034 29:-0.368421 30:-0.386065 31:-0.480756 32:-0.964814 33:-0.362117 34:-0.295977 35:-0.463585 36:-0.969793 
1024 1:-0.826613 2:-0.670628 3:-0.726062 4:0.555743 5:-0.986773 6:-0.46402 7:-0.608319 8:-0.22625 9:-0.694056 10:-0.886043 11:-0.61321 12:0.114535 13:-0.713751 14:-0.897994 15:-0.619721 16:0.174933 17:-0.734435 18:-0.898921 19:-0.649965 20:-0.779643 21:-0.53987 22:0.694039 23:-1 24:-0.245177 25:-0.342933 26:-0.641133 27:-0.552208 28:-1 29:-0.373962 30:-0.405775 31:-0.529805 32:-1 33:-0.364903 34:-0.30175 35:-0.5169 36:-1 
1024 1:-0.891328 2:-0.538083 3:-0.775057 4:-0.222913 5:-0.656028 6:-0.601107 7:-0.794313 8:0.0504262 9:-0.60421 10:-0.587848 11:-0.766511 12:0.141417 13:-0.532273 14:-0.742283 15:-0.758217 16:0.122203 17:-0.522766 18:-0.761801 19:-0.786679 20:-0.578063 21:-0.654904 22:-0.332702 23:-0.292467 24:-0.686733 25:-0.696337 26:-0.289987 27:-0.372905 28:-0.595319 29:-0.664821 30:-0.22103 31:-0.271193 32:-0.802974 33:-0.654597 34:-0.177199 35:-0.242986 36:-0.832265 
-1024 1:-0.845743 2:-0.487209 3:-0.710472 4:-0.196027 5:-0.627319 6:-0.524752 7:-0.722105 8:-0.00178964 9:-0.539131 10:-0.548154 11:-0.669814 12:0.0181319 13:-0.445099 14:-0.731234 15:-0.66667 16:0.0303719 17:-0.456689 18:-0.746619 19:-0.710073 20:-0.399131 21:-0.571243 22:-0.325952 23:-0.154423 24:-0.442191 25:-0.602095 26:-0.339353 27:-0.211991 28:-0.42706 29:-0.556787 30:-0.361091 31:-0.0597794 32:-0.716725 33:-0.543175 34:-0.289283 35:-0.0449634 36:-0.749146 
